0.163096 -12.909327 0.805807 0.738728 0.049923 0.541794 -0.001592 -0.461268 -0.223078 1.206424 0.754651 -0.380595 -1.858331 -1.663341 -2.073703 -2.678628 -1.299029 0.218902 3.247364 0.559747 1.696128 0.898304 -0.185585 0.070392 0.028161 0.039112 0.015241 0.018280 0.455672 0.697222 1.001556 0.939471 0.809069 -0.064556 -0.081627 0.144070 -0.284987 0.781904 0.776243 0.273291 -0.775590 0.283439 -1.696482 -0.810641 1.069626 2.199295 1.850008 -0.018987 0.805721 0.014616 -0.339718 0.087211 0.009646 0.000353 0.008753 0.019092 0.401744 0.647586 1.020049 0.811450 1.113770 -0.088186 -1.025950 -1.444670 0.556153 -0.189623 -0.336074 1.195595 -0.917292 0.934024 -1.499415 -2.312038 -0.079718 2.177412 0.941844 1.364187 0.240279 0.438370 -0.130783 0.190310 0.251366 0.005032 0.041371 0.031107 0.460375 0.701216 1.118453 0.612180 0.163632 -0.325701 -0.944256 -1.378790 -2.562470 -0.645540 -0.046079 0.894433 1.062123 -0.987020 -0.882286 -1.063837 1.600305 1.192045 -1.124996 -0.250373 0.069201 -1.229050 -0.800668 0.306264 0.282851 0.016861 0.029293 0.005270 0.405623 0.656975 0.439070 0.173599 -0.630897 -0.970229 -2.135636 -0.849025 0.355745 -0.485274 -0.503508 -1.426142 -1.100653 -0.770143 -0.457172 -0.331301 0.269875 0.292330 -1.430440 1.102867 2.653419 0.565633 -0.501109 0.435668 0.362351 0.033717 0.030678 0.028927 0.340870 0.375738 0.090694 0.406450 0.017316 0.921260 0.634703 0.529715 -0.437432 -0.250138 -1.090530 -0.732763 -0.817447 0.065746 -0.416900 -0.613836 -0.163730 -0.789825 1.394223 0.255543 0.011254 0.751041 -0.581984 -1.017289 -0.488963 0.023261 0.024731 0.024350 0.355363 -0.035785 -0.237444 -0.107592 -0.494482 1.322805 0.321188 0.797313 -0.004384 0.383116 -1.153746 -0.465077 -1.454535 0.458690 -0.448092 1.025119 0.356123 1.127862 1.037853 0.698433 1.140478 -0.289806 -0.865195 -0.270464 -0.527755 0.123717 0.283167 0.277167 0.384020 -0.305792 -0.246363 -0.308971 0.604259 0.474957 0.210800 -1.474826 -0.218891 -0.265469 -0.315341 0.069026 -0.000692 0.138028 -0.500474 -0.162881 1.478192 2.021385 0.921963 1.229181 -0.436400 0.027709 0.682457 0.785056 0.334523 -0.060045 0.198393 0.299548 0.362285 0.194461 0.518439 0.687450 1.079428 0.226504 -0.169856 -0.492298 0.495345 -1.234733 -0.288219 0.285103 1.506078 1.372975 1.233049 0.655476 -1.410094 -0.401347 -1.371832 -0.320974 0.408802 -1.132905 0.352099 0.217987 -0.113022 -0.220945 0.017922 0.400766 0.392659 0.823803 0.905711 0.456263 -0.147993 -0.058323 0.311861 -1.390205 -2.003706 0.149590 0.270731 -0.080051 0.876529 0.668488 1.482613 1.100978 -0.719847 -0.525672 0.272670 -0.130861 -3.006369 -1.517071 -0.796989 -0.189198 -0.232361 -0.253052 -0.119985 0.206255 0.211905 1.498575 1.050315 0.539663 -0.222584 0.850974 -1.190044 0.560190 1.060334 0.421730 1.082025 1.502783 1.775177 -0.090201 -0.607095 0.335336 -0.747577 -2.604680 -1.616324 -2.257379 -3.073846 -0.574850 -2.224616 -0.383524 -1.701091 -0.282836 -0.332957 -0.210103 0.222396 0.767092 0.553136 0.160113 -0.196122 0.415171 0.946582 -0.069160 0.235632 0.824758 0.694585 0.126947 0.660663 1.217117 -0.290211 -0.488857 -0.776480 -2.526828 -3.716146 -3.441259 -4.524189 0.080520 -1.534910 -2.377548 -1.659361 -0.495642 -0.687851 -0.194643 0.241679 0.607627 0.130693 -0.073084 0.655991 0.162050 -1.213080 -0.273191 -0.861945 -1.206424 -0.273355 -1.731996 -0.502240 0.473279 0.029785 1.054168 -2.211421 -2.502064 -2.858752 -1.973809 -4.745336 -1.329163 0.386779 -2.381509 -1.542014 -0.610844 -0.329576 -0.252771 0.113037 0.136903 0.141455 0.518704 0.412641 -0.573723 0.123938 1.641341 1.482797 2.142604 -0.384125 -0.689498 0.358911 -0.284707 3.247002 -0.148482 -2.685971 -3.214213 -1.785518 0.685808 -0.672577 0.340315 -2.876517 -1.593188 -0.676091 -0.564806 -0.291314 -0.218270 0.056639 -0.326702 -0.479567 -0.180684 -0.327879 -0.571659 0.685112 -1.948097 -1.719084 -1.910799 -0.990682 0.773523 -1.194161 1.624916 -0.632276 -0.382898 -0.139720 0.289600 0.648543 0.035367 -0.270622 0.293299 1.555733 -0.346607 -0.081882 -0.505251 -0.243087 -0.208444 -0.025588 -0.255450 -0.675566 -2.539932 -2.491805 -2.426123 -2.900797 -1.984295 -0.449988 -1.933858 -1.719713 -2.696663 -2.729155 -2.841874 -0.763396 0.124902 -0.454772 0.957400 2.903496 2.600275 0.120779 -0.019863 1.132208 0.684783 0.543332 -0.614625 -0.232493 0.030436 -0.166116 -0.276351 -0.147993 -2.786768 -3.586895 -3.556209 -2.466774 0.988954 -0.875529 -1.893719 -3.026901 -2.821451 -3.527109 -1.396197 0.443443 1.134003 1.075139 -0.434764 1.366147 0.295534 2.578111 1.349702 -0.024741 1.162100 0.405656 -0.342710 0.023411 0.007040 -0.068179 -0.020183 0.100108 -2.326816 -3.934978 -5.030324 -4.429267 -2.803196 -1.898522 -3.543769 -3.559591 -3.962691 -2.834607 -0.346351 1.425877 0.950421 -0.215756 0.108733 -0.694422 1.077702 -1.095905 0.293068 0.595496 2.640270 0.123127 -0.273971 0.004121 0.001221 -0.038567 0.125155 0.858532 0.914845 0.671734 0.480042 0.519657 -2.369040 -2.493007 -2.809295 -2.236949 -3.993677 -0.536780 0.125921 0.314950 0.134022 -0.763036 0.818581 1.602414 -0.122648 -1.413622 -0.692020 0.716405 1.024164 -0.814021 0.043774 0.028140 0.002754 0.208613 0.471896 -0.199275 -1.128480 -1.018000 0.771954 0.897513 0.180881 0.417942 -0.716865 -0.808343 -2.953196 -0.412949 1.447504 0.457708 1.163813 0.062197 -0.042941 2.077811 -0.838717 -1.443032 2.619381 1.354292 -1.081015 -0.744855 0.032449 0.025793 0.006446 0.397793 0.825300 0.070119 -0.357897 -0.511603 -0.101680 -0.327957 -0.399107 -1.466004 -0.246751 0.318677 -2.541083 -0.989985 -1.564454 0.120880 0.270288 -1.960417 -1.167863 -0.442160 0.626446 -0.186352 -0.306246 1.057869 -0.145343 -0.661718 -0.020664 -0.034818 -0.034081 0.392742 0.651130 0.565252 0.728631 -0.016708 0.149795 -1.533559 1.026198 0.375044 0.602593 -0.206196 0.598238 1.385807 0.340649 -0.381490 0.472729 1.633111 -0.755059 -0.759678 -1.247817 -1.686535 -0.590590 -0.684712 0.150869 -0.527416 -0.200599 -0.206718 -0.199102 0.164732 0.303244 0.505715 1.261879 1.782222 0.331745 1.581927 1.820940 0.995112 0.239288 0.323673 -1.030028 0.985904 0.741018 0.142063 0.978030 -0.677690 -0.470800 0.823339 1.733086 -2.512695 -2.766482 -0.492052 0.353061 -0.393448 -0.214262 -0.231168 -0.098724 0.008847 -0.037663 0.029923 0.295484 0.606999 -0.551683 -2.183156 -1.794473 -1.382547 -1.069331 -0.680259 -0.391237 -0.419188 1.344261 -0.197863 -0.559071 2.734514 0.373559 -3.045329 -1.370735 -3.261692 -1.207743 0.082373 -0.355912 0.005656 0.009207 0.004902 0.033040 0.049581 -0.035306 -0.116498 0.405351 0.509793 -0.427827 -1.178640 -0.617199 0.194938 -1.381681 -0.583046 -1.596085 0.451000 0.471088 -1.003322 -0.520124 -1.258011 -0.654730 1.920670 -4.259067 -2.486000 -0.031653 -0.369230 -0.515438 0.036674 0.005165 0.038735 0.007947 0.043560 0.045870 -0.117531 -0.087740 0.054435 -0.342861 -0.300350 -1.284538 -0.581117 -0.361340 0.899703 3.129620 0.840822 2.833773 -2.148754 0.197836 2.256427 2.217012 -2.087725 -1.685114 -0.939479 -0.146518 -1.949999 -1.512799 -0.514142 0.039773 0.013730 0.002418 0.902260 0.007853 -0.097946 -0.441481 -0.825029 -0.124671 1.632941 1.264444 1.383063 0.098264 -1.523561 -0.808207 -0.772572 0.078873 -0.271950 -0.825066 2.812717 -1.318560 1.334205 -0.565019 -1.053592 -1.112458 -1.795779 -1.731785 -1.191169 0.024987 0.026836 0.036339 1.141198 0.050129 -0.085833 -0.437040 -0.618011 0.540527 1.175552 1.572625 0.843479 0.428904 0.583091 -0.003544 -0.347732 -1.396185 -2.938816 2.725255 -0.404280 1.629435 -1.158624 -2.029944 -1.714881 -1.748936 -1.568560 -1.595766 -1.284063 -0.488252 0.007036 0.045107 0.004212 0.081585 0.172641 0.133084 0.034395 -0.229677 -0.598440 -0.857843 -0.403517 -0.237951 -0.183822 -0.458533 -0.350303 -0.920504 -0.191282 1.535747 3.246530 -0.160154 0.180685 -0.234707 -0.411139 -0.314253 0.145030 -0.109175 0.021526 0.014833 0.033190 0.015369 0.039691 0.115490 0.243297 0.222843 0.077189 0.059819 -0.468089 -0.655075 -1.495957 -0.505932 -0.357026 -0.311759 -0.393801 -0.405045 1.670213 2.239590 2.825728 1.627930 -0.560323 -0.787412 -0.630269 -0.727466 0.221131 -0.124153 0.024428 0.029224 0.047362 0.006917 -0.138789 0.082131 0.253759 0.155634 0.123969 -0.018624 0.325076 -0.303249 -1.422295 0.136287 -0.863882 -1.228097 -0.441176 0.051255 -0.560188 0.195209 -1.805120 -0.821507 -2.267185 0.562625 -0.451861 -0.933841 0.239975 -0.062438 0.077193 0.048027 0.023892 0.010697 -0.480903 -0.197470 -0.221733 0.013910 0.527082 0.585392 0.483577 0.028398 -1.141684 -0.039929 -0.988533 0.634051 0.847733 0.463052 1.051279 0.831524 -0.007178 0.033922 -1.466946 -2.511223 0.964312 -0.586219 -0.600855 0.107618 0.060993 0.022119 0.002241 0.005966 -0.500614 -0.417545 -0.097525 0.485065 0.538415 0.320797 -0.088149 -0.801651 -1.602495 -2.433214 -3.550734 -1.002095 -0.730073 -0.040156 1.838501 -1.191018 -0.154460 1.066100 -0.742109 -2.118756 -0.823729 -1.011053 -0.678437 0.097406 0.112353 0.005520 0.000309 0.008427 -0.526780 -0.461671 -0.311602 0.066019 0.444019 -0.082465 -2.053295 -1.349623 0.123606 -0.537185 -1.808595 -1.190459 -0.114301 -0.594448 0.235504 1.499793 -0.506728 0.016100 -1.099733 -0.785065 -0.043227 -1.317851 -1.813765 -1.215086 -1.011187 0.045258 0.001447 0.027936 -0.490254 -0.167615 -0.383026 -0.566960 -0.272659 -0.751910 -0.960439 -0.318320 -0.653625 -1.236550 -1.271609 -2.190907 0.640176 -1.219000 -0.806709 0.357179 0.089791 -1.715467 -0.006752 -2.395355 -1.423003 -1.678129 -3.167811 -1.814932 -1.566207 -0.157464 -0.293526 -0.344708 -0.459446 -0.221116 -0.363811 -0.035471 -0.594462 0.488783 0.511812 0.548094 0.258574 -0.302536 0.609828 -0.130263 -0.266861 -1.962543 1.516855 -0.030159 -1.514218 -0.975860 -0.524222 -2.090822 -0.522882 -3.506357 -1.564670 -1.993143 -2.347636 -0.372153 -0.173194 -0.415323 -0.315547 -0.500839 -0.587523 -0.508674 -0.647060 0.469471 -0.915240 -1.198230 -0.305087 -0.645066 1.147651 0.239740 -0.711902 0.121513 0.303954 0.690225 -0.340957 -1.273218 -1.078997 0.338632 -2.459826 -0.058403 0.225199 -2.225521 -2.617520 -0.581728 -0.284993 -0.627272 -0.206425 -0.521898 -1.200415 -1.063909 -0.717575 -1.114960 -0.951507 -1.838603 0.322422 0.269124 1.585478 0.736650 0.783057 -0.961580 -1.330777 -1.309559 -0.593515 0.412864 0.253754 -2.038411 0.372957 0.004944 0.051488 -0.427366 -1.276489 -0.661134 -0.242925 -0.583246 0.013740 -0.454680 -0.930132 -0.461232 -0.256580 0.047133 0.335588 0.301118 0.668440 -0.047724 1.439360 2.034946 0.329427 -0.801520 -1.715920 -2.392383 -0.975639 -1.126849 -1.574154 -1.373536 -3.374813 -1.354299 0.050155 0.410254 -0.806427 -0.591177 -0.204055 0.143876 -0.072369 -0.093822 0.325639 0.695433 -0.025049 0.360435 0.830617 0.461405 -0.770554 -0.982514 -0.294199 0.630783 1.907079 -0.402587 -3.034838 -0.471230 0.026468 0.057294 -0.410949 -1.397301 -1.626027 -1.084035 1.193800 0.699087 -0.803496 -0.377370 0.167571 0.073983 -0.124050 -0.163416 0.162251 0.602481 0.297866 0.619479 0.879281 -0.520012 -2.271067 0.025191 -0.024872 0.086673 1.512587 0.510278 -1.867609 -2.472791 1.926103 0.550016 1.486017 1.108282 -0.352177 -1.586954 3.191256 0.360806 -0.173452 0.298836 -0.085764 0.015322 -0.012887 -0.172941 -0.503003 0.229846 -0.222074 -0.966944 -2.605041 -2.828554 -1.659309 -3.631112 -0.800950 0.449962 0.375374 0.946309 0.553478 -1.520444 1.211262 1.466609 0.708977 2.087002 -3.061152 -1.979070 2.432425 -0.723821 0.038358 0.400591 -0.033158 -0.012953 0.030780 -0.020725 -0.720519 0.172274 -0.907735 -1.748093 -2.411884 -0.939675 1.160535 1.066506 -0.206754 0.924597 -0.816538 0.458806 0.663361 -0.169108 0.115813 1.189251 0.543057 -0.242645 -0.255645 -0.733528 1.761048 -0.198680 -0.809526 0.334190 -0.083564 0.072143 0.002050 -0.307253 -0.808689 0.060155 -1.242921 -1.369542 -0.941380 -0.755772 -0.020872 -0.427246 -0.862449 -1.770401 -0.841966 0.042655 0.100643 0.335687 0.794554 2.145932 -0.343175 -2.520904 0.280426 0.964562 0.870364 0.449143 0.489356 0.478617 0.092163 0.009374 0.193415 -0.262133 -0.582021 -1.340169 -1.401741 -1.381058 -1.881067 -1.071879 0.726019 0.074312 -2.694419 -0.467407 -1.001276 -0.162468 0.719917 -0.306009 0.554940 -0.331561 -0.754754 0.243415 1.141481 -0.350580 -1.647689 0.730454 0.825593 0.283689 0.021055 0.043716 0.133640 -0.123607 -0.307632 -0.929723 -0.605861 -1.227427 -1.045468 -1.342059 -1.396574 -0.598273 -1.707501 -0.766285 -1.262074 -0.765422 -1.576554 -2.539531 0.692232 3.035156 1.088202 0.550097 1.526947 0.739067 -1.296111 1.073362 0.214700 0.462187 0.022580 0.048564 0.117443 0.022025 -0.007616 -0.067171 0.119565 0.074254 0.094794 -0.492702 -1.061922 -0.945326 0.732285 1.125584 1.335678 0.790025 -2.967343 -0.887771 0.079806 -1.167222 -0.473893 -0.406228 2.462273 -0.846322 -0.198369 0.242353 0.519513 0.042254 0.002204 0.028364 0.144066 0.179063 0.187779 0.196858 0.292043 1.018969 0.352524 -0.332911 -0.489992 -0.263598 1.267576 0.296611 1.340139 0.110546 -0.359701 -0.780806 -0.627411 -0.631509 0.074760 0.202547 0.100621 -1.159114 -1.572984 0.492711 0.375249 0.047044 0.026936 0.041743 -0.018815 0.022205 0.179306 0.514458 0.675127 1.026059 1.757834 0.385228 0.566958 -0.093161 0.819095 0.584544 0.931140 1.448487 -1.737374 0.698275 -2.060568 0.401693 -0.550937 -0.435408 0.690935 -3.050190 -0.981187 0.722380 0.039093 0.066573 0.054062 0.035593 -0.113512 -0.149344 0.275338 0.754790 0.327567 0.569123 1.244708 1.601006 0.105051 0.928822 0.364471 0.542170 -0.734228 -1.030131 -0.548285 0.421472 -0.734199 -0.616261 -0.104515 -2.348039 2.323245 -0.582221 -2.227478 -0.073179 0.127845 0.051786 0.067134 0.096389 -0.137990 -0.238846 0.300965 0.866682 0.942260 0.343676 -0.599951 0.314138 -1.658709 0.705549 2.434467 1.597323 1.241828 -1.520242 -0.667892 0.977352 -2.208253 -2.499677 0.397000 -0.911289 3.599798 0.131338 0.702413 0.270400 0.184487 0.054658 0.094563 0.074726 0.018356 0.153476 0.434162 0.421887 -0.191720 -0.213699 -0.568466 -1.205181 -1.252316 -0.598351 0.674960 0.815120 -1.093441 -0.569626 -2.723675 1.706334 1.336195 -1.247462 -2.440409 -0.220595 1.326600 -1.522593 0.443174 0.357501 0.003480 0.002748 0.005786 0.023263 0.005790 0.048591 0.087399 -0.435732 -0.939919 -0.613116 -1.336634 -0.872158 -1.213199 0.563611 2.325907 1.922539 1.101545 -2.347780 -5.142924 0.298071 2.593801 0.915648 0.174565 0.181571 -0.967212 -0.425676 0.490877 0.504953 0.009480 0.007069 0.020477 0.016713 0.012169 0.027367 0.070392 -0.155500 -0.411698 1.131646 1.666630 1.515660 1.082334 0.470806 -0.342745 -0.378022 -1.768121 -3.152803 -4.221593 -1.057145 1.665003 -2.134926 -1.681581 -1.491153 0.192605 0.369015 0.786356 0.688534 0.242968 0.032161 0.015765 0.025960 -0.646334 0.029168 0.089052 0.231182 0.796358 1.409339 1.258650 0.828424 1.197768 2.146315 1.530116 1.214496 -0.124015 -0.207003 -0.853235 -0.777113 0.371747 -1.562233 -1.047175 -0.146205 0.120579 0.628731 0.901917 0.875397 0.318301 0.038853 0.001802 0.032351 -0.810272 0.047943 0.101428 0.223290 0.871783 1.362602 2.181540 1.786082 1.733628 2.518066 1.982241 1.316500 0.932421 -0.221825 -1.268128 0.853094 0.507592 -0.092881 -0.619208 0.243217 0.618435 0.888544 0.737262 0.720042 0.419825 0.225748 0.020227 0.024971 -0.050354 -0.200772 -0.327376 -0.245657 0.129882 -0.032397 -0.562956 -0.358492 -0.175204 -0.886657 -1.847822 -2.113468 -0.337263 -0.256534 1.535728 2.321557 1.533091 1.169762 -0.602094 -0.860370 -0.464262 -0.540903 0.337287 -0.162160 0.041918 0.005792 0.040865 0.044887 -0.178143 -0.301526 -0.412637 -0.359371 -0.119812 -0.107079 -0.927802 -0.880741 0.261090 -0.261138 -1.496531 -1.287327 -0.379358 1.033443 0.582309 0.169386 -0.968189 0.414022 -1.138439 -0.308717 -0.758914 -0.881657 0.309017 -0.202726 0.046638 0.037197 0.038429 0.033329 -0.070778 -0.310816 -0.391977 -0.329085 -0.095985 -0.039143 0.311796 0.586293 0.060723 0.421970 0.658473 -1.438593 -0.359863 -0.503678 0.328077 0.916366 -2.850529 -1.052057 -1.792508 -0.810586 -0.900214 -0.943724 0.375992 -0.239290 0.070612 0.016352 0.026402 0.034252 0.174646 -0.097163 -0.053828 0.488358 1.496857 1.080689 0.809818 0.542028 0.939494 1.715115 0.722791 0.740516 0.004287 -1.638167 -2.188529 0.354629 -1.382439 -1.462003 -0.285629 0.965609 -0.894205 -1.143877 0.573506 0.061468 0.024845 0.044477 0.046441 0.042828 0.312479 0.184387 0.477227 1.120618 1.778308 1.406407 0.997219 0.690439 -0.245491 -1.475901 0.141017 -0.357421 -0.578031 -2.363622 -0.048469 -0.872727 -1.165583 0.218647 -0.229976 0.453547 -3.220480 -1.912077 0.407841 0.010538 0.052149 0.037585 0.002522 0.039568 0.332150 0.110246 0.787487 1.514618 2.843449 2.801572 0.054695 -0.119788 -0.394653 -0.020330 1.220677 0.153313 -0.620036 0.167913 0.580616 -0.674624 -0.790191 1.710652 -0.854564 -1.173181 1.292766 0.148192 0.070819 0.592433 0.197677 0.037588 0.017663 0.016631 0.362183 -0.027818 0.276289 0.521418 1.066295 0.319663 0.689302 -0.207017 -0.450595 0.367113 0.800323 -0.646798 -0.846972 0.161528 1.553893 0.127018 -1.855096 0.385394 -0.196184 -0.054616 -1.625689 -0.974532 -0.391191 0.404035 0.225982 0.348581 0.190639 0.162361 0.418594 0.465514 0.496537 0.495692 0.187019 -0.390735 1.259389 0.543378 1.200059 0.472715 1.336289 0.211157 0.151886 -1.725063 -0.557746 0.265175 -0.237957 1.364582 -0.984308 0.327571 1.481800 -0.873257 -0.776278 0.070923 -0.204426 0.226067 0.356790 0.149482 0.451926 0.772543 0.280335 0.276276 0.005690 -0.404087 -0.352623 0.159085 0.829260 -0.265393 0.600075 -1.088316 0.685430 0.349471 0.033890 -0.042785 0.316761 0.065746 -0.960187 0.009789 -2.367850 0.124958 -0.692027 -0.479781 -0.212616 0.266203 0.595656 0.129563 0.314340 0.603462 -0.070172 -0.563194 -0.467419 -0.074181 -0.261038 -0.542717 -1.022634 -1.144841 0.060798 1.291270 -0.133796 -1.546932 -0.791734 -0.762032 0.957761 0.915209 0.245400 -1.939388 0.385544 -0.796446 -0.526487 -0.205655 0.060317 0.373704 0.346976 0.051857 0.208149 0.307146 -0.295977 -0.940088 -0.987201 -0.279048 0.047619 -1.407961 0.253475 -0.375863 -1.050807 -0.253956 -1.547481 -0.624304 -2.359756 -1.690164 0.659566 0.037554 2.033144 0.649692 1.360810 -0.991676 -0.579464 0.469342 0.975655 0.363140 0.673808 -0.150652 0.156909 0.031084 -0.590156 -1.123129 -0.645257 -0.485438 0.174185 0.624895 0.753860 -0.220716 0.060333 -0.153273 -0.719523 -1.373048 -0.754333 -0.041829 -1.391150 0.776111 0.043787 1.269949 -0.019889 1.675531 0.888650 1.117558 1.062674 0.252819 0.528280 -0.229528 0.156978 0.065266 -0.267214 -0.424293 0.313697 -0.079248 -0.931751 -1.167648 -1.233637 -1.318629 -0.421748 -0.741681 -0.453229 -1.952653 -1.325634 -0.545833 0.356915 1.307586 1.549613 1.203846 2.559194 2.276864 0.735503 0.721509 0.416901 0.639991 -0.110283 -0.212909 0.016862 0.072636 0.029279 0.019915 -0.493712 -0.514712 -0.944570 -1.312023 -0.964436 -1.431638 -2.119014 -1.695460 0.411026 -0.537594 -0.821608 -0.089284 1.026452 1.944979 0.141294 -1.713606 -3.053841 -0.163338 1.206897 -1.013891 -0.072963 0.523128 -0.105364 -0.183814 0.202935 0.083593 0.230103 0.130621 -1.052360 -1.121196 -0.485690 0.085012 -0.866055 -1.442216 -1.358779 -1.512729 0.580904 0.522385 -0.910444 0.496523 -0.095480 -0.682786 -1.786205 -0.249321 -2.092264 -0.078467 -1.044783 -1.030635 -0.383572 0.376299 -0.158475 -0.212673 0.168449 0.308772 0.797734 0.197794 -0.093751 -0.288261 -0.629522 0.395663 -0.126803 -0.289892 -0.882112 0.242445 -0.696444 -1.055637 0.207992 1.192371 1.651512 -0.115180 -1.884751 1.656782 0.919748 -0.512355 -0.182729 -0.101795 -0.992994 0.330019 -0.197369 0.034801 -0.029078 -0.202114 0.110134 -1.417612 -0.816027 -0.030775 0.371378 1.695713 1.248929 0.031880 -0.064550 -0.895749 -3.702302 -2.205808 0.186956 1.125172 1.224534 -0.859329 -0.459680 0.277519 0.129152 -0.389777 -1.340177 0.391004 -0.827198 0.611371 0.003921 0.004279 -0.189596 -0.130833 -0.322682 -1.602801 -0.886069 0.370219 -0.250366 0.433209 0.325429 1.197296 2.148544 0.361321 -3.132458 -0.765520 0.510979 -0.768750 0.942619 1.190218 0.780234 -0.330540 0.476371 -0.463950 -0.586631 0.607174 -0.443216 0.546399 0.004768 0.030038 -0.083656 0.073203 -0.129478 -0.457336 -0.154065 0.871595 0.062785 -1.000464 -0.238128 0.428393 0.173329 -0.682493 -2.782052 -1.353839 -0.095652 1.094566 -0.084217 0.025311 0.031824 -0.714854 -1.920394 -1.042510 0.162111 0.631859 0.634794 0.036309 0.012425 0.042050 0.002453 -0.250538 -0.497238 -0.313918 -0.376939 0.578254 0.480971 0.164027 -0.036044 -0.613731 0.025135 -2.397287 -3.602878 -1.397294 -0.310900 -0.710977 -0.264672 0.114817 -0.769652 -1.021981 -0.205579 -1.182110 1.432855 0.400215 1.100875 -0.010854 -0.029445 -0.030754 0.033266 -0.187892 -0.469761 -0.733129 -0.929053 -1.047648 -0.013242 -0.246469 0.125077 0.165299 0.241508 -1.309525 -1.002981 -0.049998 -0.847812 -1.598296 1.289461 -0.088859 -2.026752 -1.118540 -2.829161 -0.213781 -0.833347 0.335361 0.766681 -0.136007 -0.104662 -0.109463 0.065089 -0.125657 -0.477867 -0.078140 -1.157683 -1.972969 -2.035486 -0.768059 0.613350 0.355111 -1.079625 -2.138021 -0.080963 -0.523253 -0.332335 -0.724455 -1.115394 -0.089754 -0.178949 -0.370108 1.604470 0.546505 -1.156641 -0.383303 0.497885 -0.208779 -0.236320 -0.205329 0.111408 -0.010269 0.269303 0.989712 1.065787 -0.502794 -1.310995 -0.848145 -0.561237 -0.981931 -1.138000 -1.661274 -0.029057 0.978436 -0.055513 0.001538 1.772121 -0.677700 0.073747 -1.268155 -0.909666 0.021794 -0.414123 -0.848981 0.295264 -0.223312 -0.241195 -0.190986 0.029129 -0.067635 -0.114988 0.031990 0.246978 0.501996 -0.144879 -0.367264 -0.354565 -0.741028 -0.848367 -1.326150 0.051932 0.841472 0.421455 1.161396 -0.496058 -0.484412 1.067128 -2.475596 -0.173616 0.289684 -0.048401 1.185419 0.043689 0.008815 0.003810 0.022672 0.009813 -0.049329 -0.205594 -0.402248 -0.612312 -0.088820 0.003371 -0.475633 -1.022556 -1.616830 -1.622902 -1.229181 -1.627140 0.232735 -0.014976 -0.752580 -0.899011 2.116660 0.310127 -0.860842 -0.344349 0.004880 -0.391983 1.167701 0.006085 0.007905 0.003752 0.034545 0.037808 0.041995 -0.071525 -0.255552 -0.414203 -0.255945 -0.403580 -0.206606 0.486249 -0.975780 -1.032156 -1.725571 -0.161146 0.777538 1.841323 1.491400 0.075481 -0.199887 -1.344810 -1.557029 -0.639127 -0.384963 0.383967 0.037106 -0.436326 0.016884 0.004244 0.044975 -0.047254 0.048259 -0.056008 -0.392918 -0.487211 -0.157052 0.138153 -0.124504 -0.203885 -0.130433 0.288621 0.053198 0.100489 1.082264 1.647044 0.162067 1.478735 -1.064744 -1.297626 -1.105442 -0.661590 0.632008 0.723321 -0.076796 -0.496144 0.021924 0.018162 0.005237 -0.095210 0.033738 -0.095075 -0.349967 -0.406167 0.012167 -0.146504 -0.726911 -1.020253 -1.758072 -0.176197 0.550324 -0.310491 -0.363325 -0.729062 -1.092284 -0.869974 -1.688406 -2.034489 -1.390683 0.251000 0.721269 0.030852 -0.171989 -0.597818 -0.400254 0.046242 0.007302 0.061538 0.159943 0.256380 0.259430 0.112702 0.148262 -0.494341 -0.726689 -0.377723 0.007508 -1.141911 -1.757184 -2.020773 -1.626227 -0.984458 -0.616678 0.905256 1.239426 2.360248 0.353053 0.567561 -0.201662 -0.277542 -0.091629 0.019920 0.043716 0.006652 0.024071 0.142852 0.215986 0.362777 0.355942 0.398417 -0.126649 -0.289437 0.383348 0.351161 1.112074 -0.128658 -1.539471 -0.739662 0.187086 0.237160 -0.726087 -0.475122 1.893090 1.516430 0.858020 0.497486 -1.017341 -0.366187 -0.137185 0.002192 0.037564 0.004883 0.005781 0.084696 0.209591 0.362374 0.275361 0.493372 -0.029106 -0.215607 0.445005 1.474818 0.721615 0.109835 -1.615251 -1.714607 -0.070426 0.456954 -1.116330 -2.929165 -1.528235 -0.308884 0.831625 0.073553 -1.032669 -0.366107 -0.025111 0.181487 0.029117 0.039947 0.047459 0.075775 0.202225 0.345857 0.332479 0.415314 0.006042 0.013681 0.213595 0.362091 -0.457083 0.391361 1.588812 0.422398 -0.947370 -2.294617 -0.857826 -1.207742 0.830469 -0.434713 1.226537 -0.845035 -1.196325 -0.467899 0.225750 0.201704 0.009006 0.035322 0.049746 0.060337 0.167534 0.341752 0.435797 0.086124 -0.705765 -1.187042 0.797770 1.966195 0.115681 -0.060335 -1.218295 -0.377967 -0.365998 -0.002166 1.234570 0.112250 2.514021 1.168611 2.501172 0.398725 -0.062424 0.083234 0.307205 0.259855 0.036168 0.021384 0.016005 0.058664 0.256635 0.574678 0.926744 0.695048 0.495677 0.604405 -0.221053 0.282134 0.558961 0.433023 -0.681863 0.397312 0.614411 -0.370529 -1.268818 -1.352939 -0.939541 -0.698823 0.878140 1.774099 0.419350 -0.229134 0.337669 0.510593 0.038310 0.025856 0.011431 0.051996 0.180243 0.326407 0.401826 -0.338753 -0.078048 0.026262 0.353668 0.420156 1.474195 -0.089287 0.485282 -0.850887 0.364521 0.274519 0.713906 -0.276557 0.275002 1.004787 1.579997 0.304927 -1.109595 0.315104 0.490936 0.271784 0.015017 -0.073856 -0.060051 0.087920 0.110162 0.315610 0.086970 -0.597046 -0.319059 -0.344440 -0.764497 0.148710 0.933891 0.757161 0.277393 0.785270 1.230988 0.480006 -0.074403 -0.522179 -0.068394 -0.609045 0.068940 -0.772392 -0.372571 0.316203 0.775074 0.443428 -0.226484 -0.108426 -0.066437 0.026586 0.116213 0.195961 -0.213155 -0.874779 -1.251661 -1.163269 -1.743247 -0.789675 -0.597037 0.397066 -0.195314 0.386295 1.502151 0.846991 0.769306 -1.543805 0.031708 0.389543 0.153056 -1.387387 -1.456349 0.826252 -0.373281 0.171236 -0.280736 -0.242413 -0.094421 -0.037104 0.089818 -0.044506 -1.094119 -1.648669 -1.219693 -1.231057 -1.896072 -1.497317 -0.573327 0.003975 -0.835306 -0.584309 1.649968 0.475275 1.761233 0.112427 -0.259758 -1.548750 -1.902766 -2.748528 -0.852666 -0.668007 0.389426 0.038712 -0.336464 -0.438752 -0.186485 -0.058641 0.115341 -0.187587 -0.897534 -1.383901 -0.694726 -0.242147 0.332353 -0.786199 -0.405349 -1.029925 -1.350610 0.262094 0.654772 0.463332 0.297282 -1.200751 -1.546334 -2.343945 -3.583166 -0.706219 -1.055667 -0.527192 0.600636 -0.327673 -0.416330 -0.336621 -0.098686 -0.085626 -0.379472 -1.014984 -1.337813 -0.719069 -0.274767 -0.435054 -0.340818 -0.596130 -0.406829 -0.993335 -0.981967 -0.165802 -0.095931 1.269443 -0.178670 -0.309911 -2.207882 -3.300815 -3.403652 -1.235188 -0.869475 -0.847274 0.240051 -0.232263 -0.223784 -0.066321 -0.010757 -0.032543 -0.358368 -1.163005 -0.876556 0.123705 -0.186230 -0.706274 -1.443770 -1.142434 -1.766810 -3.254042 -0.834627 -1.331853 0.888564 -1.725348 -0.783051 -1.122524 -1.637261 -1.742932 -0.513580 -1.752294 -0.488214 0.925746 0.502903 -0.111888 -0.141275 0.028380 0.050539 -0.090098 -0.334313 -0.327692 -0.043895 -0.486136 -0.591674 0.894086 -1.655487 -1.404028 -1.423925 -0.493487 -0.381393 -1.409124 0.611168 0.333499 0.076585 -2.243226 0.053959 -3.124394 -1.182553 -1.932194 1.582553 -1.693790 -0.507312 0.155173 -0.156536 0.026341 0.105323 0.042515 -0.238365 0.088643 0.471182 -0.703938 -0.392616 -0.510084 -1.379033 -0.540864 -0.777958 1.004518 -2.062872 -1.156607 0.533252 -0.914543 -0.119987 0.616796 0.147646 -2.134915 -0.636911 -2.462636 -0.007912 -0.655467 -0.287185 0.049008 -0.161802 0.145250 0.020918 0.033366 0.079891 0.314842 -0.267801 -0.903431 -0.956378 -1.228013 -2.151666 -0.330085 -0.056065 -0.042515 -2.035603 -1.173710 -2.775141 -2.012407 0.016720 0.641441 0.127099 -0.847899 0.995888 1.230816 -1.971591 0.224493 0.250621 -0.844236 -0.153468 0.009431 0.038833 -0.089766 0.113982 0.663083 -0.748225 -1.406129 -1.095894 -0.082094 2.564508 1.292637 1.142590 -0.347595 0.165825 -2.073373 -3.865347 -1.847061 1.081475 2.819100 0.288007 1.415036 0.196121 0.261995 0.807984 -0.458138 1.090377 -0.996839 0.021833 0.006693 0.015276 -0.111506 0.289508 0.649734 -0.480816 -1.481766 -1.399079 -1.614228 0.378780 -0.515762 -0.435900 0.962349 -0.399654 -3.511714 -2.250744 -2.243318 -0.483638 1.296738 1.588216 -0.711629 0.918932 -0.271249 0.164363 0.624319 1.530382 -0.450612 -0.043332 0.025590 0.026178 -0.019611 0.481677 1.099960 0.808188 0.416506 1.193691 0.933009 0.494752 -0.950630 -0.398413 0.222742 0.489219 -1.303766 -0.785056 -0.978613 0.441418 0.208385 1.756851 2.096564 0.064537 0.019780 0.536786 0.311653 -0.012301 -0.334938 0.036463 0.014435 0.039064 0.179399 0.304123 0.214691 -0.241292 -0.621520 0.427982 0.791679 0.604114 1.008378 1.326154 0.785976 0.677917 0.336016 -0.459064 -1.102197 -1.174253 -0.964946 0.463528 0.201671 0.986562 0.332912 1.034095 1.584369 -0.216991 0.302366 0.066446 0.080483 0.054050 0.218065 0.389817 0.080753 -0.188489 -0.758426 -0.351910 -0.035393 -0.340178 0.759485 1.098879 1.350407 0.191363 0.054781 -0.174326 1.580491 0.291975 0.474579 -0.139122 -0.327985 0.325719 -1.716523 0.564169 -0.286531 0.515318 0.386997 0.051393 0.075082 0.059202 0.164042 0.248861 0.064940 0.238744 -0.552906 -1.112024 -1.906858 -0.279314 0.957192 -0.175036 -0.427166 -1.299783 -0.553336 0.590347 -1.178434 -1.230295 0.595022 0.515456 0.601446 0.459020 -0.095282 -0.257841 0.133961 0.639277 0.275882 -0.000721 0.010001 0.010318 0.043042 -0.128451 -0.283474 0.188984 0.768762 -0.820014 -1.476203 0.212809 0.975875 1.077406 0.224477 -0.931357 -0.501575 2.193464 0.457308 -1.147321 -1.675244 -0.414302 0.011539 1.900820 1.143874 0.109084 0.056002 0.246678 0.166294 0.000568 0.009495 0.049002 0.010915 -0.050343 -0.077654 0.011540 0.105769 -0.220493 -1.314643 -0.646444 -0.695204 -0.592859 0.083371 -0.902044 -2.254188 -1.071528 1.045497 -1.849150 -0.788587 0.978386 -2.301204 -3.024727 0.057619 -0.470492 -0.139659 0.148173 0.037432 0.048390 0.048591 0.041855 0.002884 -0.011952 -0.013386 0.041174 -0.019357 -0.375692 -1.712556 -1.019552 -1.114098 -2.099460 -1.448002 -1.068580 -0.114087 0.146537 -0.107430 -1.579826 -1.459808 -2.724515 1.067796 -1.757793 -0.177401 -0.057206 -0.275111 0.036267 0.050185 0.010716 0.044820 0.015852 0.047312 0.029908 0.022739 -0.105291 0.007283 0.013383 -0.255194 -1.907269 -1.480729 -0.899210 -0.430227 0.361981 -1.080082 -0.226614 -0.614995 0.292460 0.656758 2.336935 -1.586435 -0.360853 -0.187929 -0.252381 -0.434999 -0.376784 -0.096849 0.042504 0.013805 0.019301 0.290272 0.002321 -0.002073 -0.089467 0.041936 -0.057288 -0.013624 -1.021447 -0.811962 -0.774082 -1.861203 -1.766283 -1.764595 -1.407957 -1.016964 1.023179 2.319928 -2.196254 1.062139 -0.124719 -0.192292 -0.365342 -0.227929 -0.457198 -0.132020 0.046603 0.017993 0.007756 0.371699 0.004859 0.003989 -0.099547 0.138918 0.114848 0.078370 0.404111 0.160386 -0.135476 -0.454514 -2.201823 -2.646581 -2.602663 -1.916949 1.920688 2.044212 1.282597 0.497690 -0.114531 -0.303887 -0.225542 -0.447944 -0.263109 -0.144484 -0.132357 0.008506 0.030746 -0.010812 -0.121070 -0.247066 -0.204279 0.042646 0.042940 -0.556523 0.767264 1.821374 2.153330 1.102270 -0.760640 -1.628884 -3.982050 -1.448641 0.676794 -1.382085 1.436776 -2.147110 -2.202022 -1.023478 -0.681574 -0.622785 -0.107814 0.012340 0.036416 0.002602 0.008577 -0.122341 -0.222700 -0.416442 -0.345387 -0.172007 -0.216524 -1.562239 -1.306373 1.624872 1.597852 0.489933 0.273773 -2.420944 -2.752465 -2.349652 -0.775580 1.274667 -1.461402 -1.856422 -1.366602 -1.573918 -1.763645 -0.710523 -0.228245 0.004263 0.046597 0.049553 0.044481 0.293924 -0.230102 -0.412579 -0.277778 -0.447913 -0.854614 -0.893376 -0.792073 0.325087 0.592344 -1.396830 0.373235 1.037330 -3.516067 -2.896478 0.001686 -0.188333 -1.344267 -1.949708 -1.560051 0.037504 -1.081978 -0.375769 -0.364186 0.066265 0.002191 0.006405 0.039813 1.128867 0.553480 0.867823 1.114582 1.319461 0.594444 -0.062675 -0.602436 -0.622033 0.906602 -0.764777 -1.260429 0.965406 -1.103339 -1.670184 -0.755623 -0.729948 0.454334 0.865476 3.523622 -1.187448 -0.439567 -0.042517 0.055488 0.081569 0.003038 0.009622 0.014972 1.382530 1.250201 1.345228 1.735478 2.477596 1.513202 0.693185 -1.437725 -1.290921 -1.024281 0.468090 -0.791952 2.106761 -2.785105 -0.610182 -1.932958 -1.548176 2.095190 0.514778 1.931701 -1.591279 0.147417 0.577857 0.055822 0.050229 0.033384 0.026357 0.044595 1.413970 0.750583 1.019667 1.600893 3.493310 2.953991 -0.793162 -1.459346 -0.950103 0.668625 -1.075991 -1.180738 -0.738603 -0.155435 -2.602649 -0.694996 0.205457 0.854040 -0.783648 -1.635250 0.160583 0.846276 1.117606 0.208325 -0.330835 0.026771 0.005176 0.015738 1.416571 -0.144997 -0.297056 0.240165 1.621998 0.353099 -1.325135 0.874346 -0.974926 -0.360997 0.712883 0.621304 1.116046 1.369940 -0.642213 -0.738864 -0.872257 0.697626 1.126988 -1.281129 -1.130326 -1.147428 0.118858 -0.073890 -0.569019 0.389474 0.292679 0.300492 1.542756 0.634666 0.021565 0.343940 0.103380 -2.267163 -1.712685 -0.327111 0.137071 0.418759 0.287987 -0.170691 0.212888 1.248858 -0.313581 -0.213098 -1.839934 -0.372919 2.124232 0.327945 1.708673 2.240324 3.266474 0.548120 -0.975051 0.560008 0.593825 0.508450 1.536876 0.922298 -0.088914 0.889410 2.030451 -0.395646 0.008138 -0.101175 -0.284406 0.085250 0.723972 0.579121 0.478343 -0.016416 -0.825777 1.126367 0.004591 -0.409076 1.046546 1.402557 0.832382 -0.549987 1.120920 1.975074 -0.634186 0.912452 1.015800 0.764713 0.930035 0.966008 -0.274273 0.296868 0.412975 1.408376 1.044058 0.467491 0.096716 -0.258882 0.270695 -0.863956 -1.134933 -1.427594 1.111495 0.170174 1.724924 1.341408 -0.170016 2.905261 0.087655 0.400438 -0.400670 -1.050764 0.637422 1.043693 1.021651 0.778860 0.567787 0.885798 -0.933157 -1.337473 -1.383073 -1.825828 0.713004 -0.792302 -1.450585 -0.621601 0.484405 -0.285418 -2.585536 -1.587454 1.277391 -0.172783 1.519856 1.014359 1.436714 1.410042 1.513362 1.271008 1.015240 -1.843276 2.344773 1.163878 1.280373 0.286144 0.648974 1.325235 -0.342028 -1.684746 -1.752231 -2.197081 -0.610747 -0.776616 -1.608753 -0.717483 -0.608543 -1.086504 -2.484782 -3.623707 -1.039253 2.155264 1.229347 -0.060459 0.737716 0.685112 1.175329 1.050030 1.021573 -2.158267 2.325390 0.766475 0.768936 0.217687 0.584325 1.328841 0.568895 -0.647545 -0.729959 -3.275990 -4.717845 -1.495792 -3.050647 -1.036557 -0.202160 -2.661442 -2.482109 -0.717750 -2.237467 0.897325 0.782714 2.408921 1.662857 -0.622939 2.434395 1.629293 -0.867657 -3.089547 1.123136 1.009408 0.391279 0.195248 0.111287 0.745240 1.084832 0.395686 0.265561 -1.589772 -1.489486 -0.351093 -0.392433 0.578307 0.216911 -0.260779 -3.458586 -2.291408 -0.026752 -0.590852 1.823317 1.196312 1.426223 -1.337442 4.676476 -4.057167 -3.316592 0.309931 0.756104 0.908146 0.319646 0.170966 -0.317492 -0.145840 1.006481 -0.145451 -0.351591 -0.613217 -0.459226 -1.302949 -1.571872 -1.561861 -2.379883 -1.766723 -3.759070 -1.405216 -0.794208 -0.073515 -0.369563 0.826311 -0.424143 1.096078 -1.503299 0.642393 -2.087312 0.224742 -0.746999 0.846237 0.125879 0.195354 -0.374427 -0.021238 0.772472 -0.033634 0.070980 -0.643695 -1.765843 -0.451355 -1.047296 -1.808471 -0.303453 -2.206237 -2.180994 0.660484 0.714716 0.798586 -0.119878 -2.795626 -2.723877 -0.443977 -5.679764 -0.263892 -2.631550 -0.547094 -0.698722 0.637764 0.220573 0.045762 -0.424604 -0.815400 -0.720210 -1.164661 -0.573189 -1.161007 -1.355161 -0.956683 0.329544 -1.433795 -1.677888 -1.455634 -2.027840 3.091649 0.642835 -1.091602 -1.581278 -1.162911 -1.283303 -1.745566 -4.159294 -1.904861 -0.996690 0.733195 -0.849178 0.400738 0.035346 0.014090 -0.406256 -0.380229 -0.524243 -0.604930 0.337282 0.669069 0.192488 -0.124364 -0.960537 -0.222012 -0.538608 -0.499182 -0.342210 1.264835 0.272920 -0.649749 -1.409661 -1.751096 -3.621087 -4.965522 -0.769743 -2.651610 -1.697398 -0.469727 -1.128044 0.279536 0.050479 0.017558 -0.197127 -0.039564 -0.152174 -0.259609 -1.264589 -0.954142 -0.439951 -0.540425 -1.359224 -0.759768 -0.039108 -1.216533 0.518158 -0.039922 0.868692 -1.618606 -1.593441 -4.457704 -3.558767 1.502448 -0.578803 -1.471842 -1.385441 0.831145 -0.418453 0.041909 0.019510 0.014319 -0.016523 0.092139 0.224988 0.570784 -0.731649 -0.640599 -0.902674 -1.179374 -2.138018 -0.754246 0.169666 -1.411237 -1.278174 1.330069 -0.077399 0.254433 -0.988582 -0.649328 -1.103074 -2.029398 -3.093558 1.833527 0.201185 -1.071054 0.285558 0.103497 0.144516 0.146987 0.168050 0.482012 0.805503 0.710317 -0.197632 -0.754708 -0.245179 -1.378851 -0.476724 -1.557014 -0.010872 -1.093762 1.524621 0.052388 -0.061856 -1.151164 -2.843254 -0.419452 -1.207249 0.133603 -0.787844 0.864182 -1.579493 -0.023573 0.255104 0.223902 0.208724 0.217751 0.215057 0.945481 1.214285 1.690274 0.037181 -0.588118 0.119230 -0.886645 -1.189072 -0.566359 -0.501294 -0.616139 1.008231 -0.590328 0.616477 -0.581703 -1.102145 0.142414 -0.452996 1.221525 -2.180846 -0.962023 0.767442 -0.204522 0.485902 0.214756 0.233595 0.203582 0.222825 0.933879 1.068282 1.123103 0.928925 1.673476 2.191150 -0.044144 0.518155 -0.797660 -1.529680 -0.921433 -0.326112 -0.086089 -0.144157 0.423602 -2.243195 -0.881658 1.518557 -3.468875 1.383436 1.802914 -0.382953 0.361826 0.538381 0.199292 0.193997 0.246226 0.047274 0.170270 0.306164 -0.227542 -0.259100 -0.295912 -1.764035 -2.338743 -1.905969 -0.667437 0.632686 1.471716 1.270151 -0.607830 -0.616542 -3.976873 -1.608632 -2.250648 0.140651 -0.293057 4.369207 0.783190 -0.934932 -0.019723 0.023458 0.044212 0.043218 0.021146 0.003873 0.136397 0.189009 -0.192096 0.099567 0.561017 0.590633 -1.087561 -2.064401 -2.687341 0.497005 -0.699319 0.528745 3.831625 2.153193 -5.164640 -2.939492 -4.554472 -0.731147 -1.347629 -1.296998 -1.772779 -1.712465 -0.035803 0.044203 0.038840 0.020154 0.027430 0.006482 0.043219 -0.693933 -0.495414 -0.401525 -0.539043 -0.134848 -0.887671 -1.082644 -2.194084 -0.572084 -2.209248 0.344984 2.613753 0.355197 -2.790831 -2.659355 -0.941861 -0.519935 0.399727 -1.414241 -1.827299 -1.213064 -1.184557 -0.599415 0.030834 0.002743 0.017956 0.301955 0.048469 -0.656358 -0.593362 -0.573082 -0.160131 0.926234 -0.326988 -0.790462 0.222713 0.749129 1.486129 2.219170 2.371582 0.206971 -6.910265 -3.222877 -2.018586 1.192786 -0.084482 -1.406485 -1.169775 -0.837414 -1.256620 -0.675491 0.023483 0.025631 0.028446 0.356953 0.005191 -0.695893 -0.598716 -0.589512 0.223921 0.848946 0.383674 0.849904 1.870593 3.877625 2.855005 1.182011 0.551203 -3.215007 -1.385598 1.631592 -0.191905 -0.247174 -0.842194 -1.483484 -0.789675 -1.191665 -1.253316 -0.739982 -0.560531 0.030037 0.026948 -0.097794 -0.325214 -0.462332 -0.416370 0.053890 -0.021712 -0.367881 -0.446058 -0.901286 -1.352871 -1.634139 -1.265558 0.248318 0.663170 1.393515 1.344502 0.161370 -0.562013 -1.506130 -0.814138 -1.149670 -0.982191 -0.078734 -0.046923 0.016466 0.002483 0.002698 0.030796 -0.247859 -0.400376 -0.582625 -0.545144 -0.338547 -0.227717 -0.652828 -0.824743 -0.019928 -0.337572 -1.558266 -0.871219 1.086386 1.582378 0.129629 -1.800303 -0.942689 -0.608201 -1.982784 0.142675 -1.030675 -0.948702 -0.054475 -0.101691 0.012367 0.004869 0.042693 0.029418 -0.180798 -0.354103 -0.614946 -0.450632 -0.181836 0.134865 0.434894 0.327107 0.190460 0.811204 0.538865 -0.032063 0.990109 -0.276559 0.988519 1.464116 -0.549966 -1.864728 -1.159809 -1.637666 -1.234137 -1.191814 -0.123841 -0.087367 0.006206 0.039759 0.008447 0.036443 -0.023142 -0.303317 -0.390306 0.109819 1.122243 0.627472 0.579310 -0.061256 0.597887 -0.411076 -0.321650 1.409389 0.052758 -0.413558 -0.503487 2.309959 -0.420912 -1.622416 -0.364088 0.756471 -1.224697 -0.213892 0.173624 -0.022405 -0.048856 0.013516 0.041561 0.045866 0.022241 -0.127512 0.326497 0.677346 1.354504 0.750494 0.925456 0.546271 -0.119283 -0.306534 -0.364824 -1.658499 -1.545630 0.911378 0.159985 -0.192117 -2.326899 -0.727889 0.339279 -1.513313 -1.530043 0.274725 0.235085 -0.053077 -0.044639 0.017118 0.028026 0.022445 0.120856 0.003558 0.503107 0.517504 1.290534 1.259754 0.457566 -0.334602 -0.976529 -0.957088 -0.066392 0.547244 -1.344582 -0.260024 0.245669 0.706152 -1.622490 0.497181 -1.506900 0.412747 0.864157 -0.151270 -0.015363 0.510755 0.422770 0.003286 0.040634 0.043403 0.133279 0.058396 0.117994 -0.056014 0.100124 -0.557415 0.310723 0.203772 -0.490874 -0.539942 -1.076219 -0.640648 -0.595216 -0.020830 0.766860 0.404762 -1.153230 0.245569 -1.108099 0.526215 -0.485777 -0.427554 0.225973 0.035730 0.325705 -0.006139 -0.116124 -0.140760 0.135470 0.336775 0.137647 -0.174882 -0.799347 -0.344670 0.189142 0.628467 -0.148803 0.077307 0.259669 -0.192400 -0.999441 0.157004 0.432247 0.558688 0.414224 -0.004325 -0.016656 -0.155800 -0.532453 -0.048966 0.184588 -0.392461 -0.292130 0.029604 -0.075976 -0.150719 0.017679 0.487530 0.302391 -0.269583 -0.666798 -0.077490 -0.667539 -0.519211 0.079741 1.774150 0.427155 0.296195 0.543047 0.881675 0.307361 1.185352 1.283433 -0.054354 -0.179218 0.116779 -1.146228 -1.465825 0.884900 -0.633340 -0.112456 0.066131 0.020973 -0.226168 0.035837 0.277928 0.076020 -0.554596 -0.417589 -0.433808 -0.870729 -0.746158 -1.307019 -1.539814 -0.316139 0.069009 0.153007 1.313210 1.356010 -0.615523 0.218825 -1.102725 0.491693 -2.917712 -0.779844 -0.842614 0.815859 0.218155 -0.072343 0.164363 -0.002458 -0.210139 -0.041699 -0.032118 -0.212444 -0.732164 -0.711491 -1.664585 -1.928750 -1.480571 -1.582786 -0.360130 -1.781017 -1.829518 -1.967522 0.323656 1.503932 0.042769 0.225503 -0.828540 -0.298010 0.328682 1.897399 -1.678877 1.758165 0.351948 0.939999 0.151524 0.236007 0.041014 -0.102643 -0.625045 -1.213355 -1.874647 -1.473910 -1.861526 -2.563471 -1.143477 -1.692497 -2.414076 -1.248984 -2.918117 -1.439862 0.258722 0.127784 0.833832 0.249201 0.957452 -1.165207 0.399902 1.415060 -1.272961 0.820799 1.008501 0.848114 0.335363 0.548171 0.080833 -0.101868 -0.444659 -0.809979 -1.149673 -1.118126 -1.108968 -1.707535 -1.933162 -1.164567 -1.738268 -1.640651 -0.485734 -1.526831 -0.555500 0.069817 1.022794 1.286773 -1.261991 -1.447702 -0.281077 -1.052862 -0.696630 0.244882 1.294352 0.415362 0.419096 0.108031 0.127671 -0.157454 -0.144162 -0.398986 -0.941313 -1.127549 -1.137955 -1.444086 -1.698370 -2.642977 -2.685688 -0.847470 -0.880822 -3.004585 -0.466841 0.207051 0.131711 1.499520 -1.335025 -1.212151 -1.601469 -2.967556 -1.004597 -0.250804 0.086489 0.022422 0.341474 0.114071 0.126615 -0.143873 0.080938 0.328061 -0.235703 -0.577485 -0.934742 -1.710394 -0.467125 -1.377908 -0.430732 -0.502571 -1.866885 -3.190315 -2.119915 -0.114793 0.187402 -0.337713 -2.853216 -3.353730 -0.375571 -3.432002 0.238671 -2.238950 -0.466370 -0.547242 0.243632 0.155672 0.095846 -0.044028 0.141671 0.483061 1.189223 0.631185 -0.290360 -0.165362 -0.529970 0.413189 -0.379917 -0.706716 -0.375552 -0.090807 -1.651510 -0.864942 2.005177 -0.494791 -1.533555 -2.146490 -0.103124 0.045348 -0.349548 -1.336367 -0.528454 -1.121621 0.403097 0.102360 0.034193 0.040832 0.077284 -0.208789 0.395357 0.456576 0.574931 1.300794 0.045345 1.641834 0.976360 -0.816590 -0.006892 0.274285 -1.734775 -0.739059 1.130479 0.940063 -0.302207 -0.167394 0.469991 0.452668 0.343095 -0.726235 0.091210 -1.059975 0.498332 0.028445 0.012689 0.006341 0.086201 -0.099954 0.504985 1.367456 2.981156 2.220806 1.526274 1.036917 -0.717061 0.817974 1.574615 -1.006396 -0.715859 -0.770579 -0.962013 0.496040 -1.108145 -0.054558 -0.152422 0.249673 0.533500 -0.363535 -1.050397 -0.481091 0.355783 0.038426 0.048085 0.005503 0.164659 -0.132238 -0.821060 -0.855364 0.031844 -0.367344 0.598108 0.284945 0.037802 -0.592116 1.169932 1.293629 -1.502387 -0.470127 -0.095936 1.069157 0.806052 0.254857 0.465854 -0.862794 0.959899 -0.238830 0.593459 0.572022 0.009658 0.001659 0.033452 -0.015767 -0.047841 0.407945 0.478177 0.130968 0.211371 0.733233 0.150071 1.198407 0.321470 0.678666 0.977068 0.443437 0.302984 1.135244 -0.153072 -1.018016 1.195658 0.575965 -1.831821 -0.984253 -0.130075 1.454154 0.722843 0.862933 0.047523 0.028520 0.042105 -0.104337 -0.219856 0.186237 0.157754 0.098114 0.421302 0.876293 -1.415840 -0.423117 0.019635 1.984769 0.751769 0.000864 -1.124133 -0.050569 0.747067 0.744685 0.142349 0.495725 -0.164379 -0.836743 1.480869 -0.270573 0.298771 0.821579 0.066849 0.037776 0.051645 -0.122301 -0.264572 -0.322722 -0.277850 -0.528261 -0.877763 0.089187 0.128275 0.756549 0.593787 1.861736 1.073207 2.176916 -0.001446 0.401440 -0.345884 -0.639911 1.751534 0.563960 0.658874 -1.025777 -0.557045 1.684530 0.077090 0.679861 0.095697 0.104158 0.065797 -0.065214 -0.326433 -0.583514 -0.590370 -0.261122 -0.769444 -1.334643 -0.990039 0.323391 -0.123948 -1.658900 -0.903372 -1.026449 0.036180 0.745282 -1.105281 0.256646 -0.062369 -2.822756 0.013054 -0.959188 0.172269 0.052793 0.047033 0.595580 0.102277 0.086116 0.055454 0.032534 -0.034870 -0.118307 0.168555 0.262986 0.671858 1.422656 0.956829 0.752810 0.568187 -0.937670 0.357907 0.627853 -1.091332 1.009949 0.440873 -2.627174 -1.649639 1.726884 0.587292 0.540834 -0.466556 -0.152342 0.614394 0.029306 0.037568 0.027268 0.016376 0.002524 0.008543 0.097442 0.198334 0.058456 0.672658 1.018196 1.235298 0.199106 -1.082139 -1.636653 -0.103299 -0.492748 -0.803992 0.648603 -2.377463 1.333477 -1.207584 -1.844052 1.342362 0.101846 -0.432958 -0.030626 0.671571 0.011110 0.043027 0.047955 0.022878 0.007454 0.018917 0.071942 0.190124 -0.057213 0.002289 -0.204725 0.396220 0.983761 0.120049 -1.291835 -3.032881 0.256856 -1.123365 0.921087 0.546947 -1.128708 2.187278 1.377555 0.957777 0.404802 -0.204419 0.837739 0.242203 0.186888 0.000410 0.011104 0.025301 0.460018 0.015707 0.051265 0.178647 0.122583 -0.356358 -0.871490 -0.719669 -0.791499 -0.359844 -0.190127 -0.326364 0.518379 0.084413 0.164302 0.363652 -1.634496 -0.307665 0.035783 0.692143 0.487671 0.765877 0.907187 0.347145 0.234383 0.036024 0.003697 0.028720 0.514721 0.011676 0.036403 0.178320 0.039203 -0.555865 -0.743313 -0.951914 -0.491455 -0.364798 0.259305 0.114968 0.264911 -0.022992 0.635423 -0.748932 2.078258 0.353200 0.906789 0.682914 0.696639 0.891738 0.246931 0.263628 0.277906 0.186842 0.009102 0.002538 0.073717 0.155304 0.234132 0.156483 -0.068689 -0.062858 0.107262 -1.003019 -0.593238 0.207140 0.253789 0.615828 0.313564 0.608561 -0.033959 -0.012609 -0.666762 1.295462 -0.797993 0.256311 1.005948 1.454833 0.541916 0.096036 0.036838 0.022683 0.023118 0.026554 0.150123 0.227280 0.238821 0.230328 0.024622 -0.103153 0.231082 0.247831 1.586569 -0.202725 1.645474 2.618053 1.344011 0.324538 0.320311 0.261513 2.262924 1.419365 -0.245384 -0.689298 1.102520 1.699307 0.650264 0.088291 0.035929 0.039782 0.017250 0.010650 0.222111 0.182186 0.266475 0.239492 -0.144722 -0.209832 -0.062238 -0.109623 1.186257 -1.661140 -0.882245 -0.439222 1.904378 -0.899358 -1.724448 0.567797 0.898359 2.780334 -0.753302 -2.117389 2.245447 2.440146 1.420215 0.090148 0.045879 0.026149 0.039189 0.036711 0.787685 0.738711 0.846267 0.530095 0.055365 0.433821 0.785019 1.148749 1.449852 1.281858 0.935348 0.656654 -0.129055 -0.735596 0.870548 2.432740 3.109031 0.475326 -0.127953 0.440083 1.772069 1.937325 1.284754 0.025612 0.048901 0.043545 0.043410 0.012755 0.825654 0.814410 0.675856 0.809913 0.845925 0.597535 0.815520 0.413627 -0.078237 -0.466681 -1.160472 -0.853107 -0.800733 -0.392312 1.894278 2.170844 -0.310465 -0.770997 0.110319 2.586243 -0.414245 1.700173 -0.089803 0.065508 0.064798 0.022338 0.049955 0.033124 0.788655 0.684273 1.023661 1.104816 0.118306 -1.843954 -1.368209 2.117842 2.825675 1.327942 -1.358419 -1.428110 1.395898 1.075231 1.403783 0.446116 0.882955 -0.293382 2.425125 -0.500109 -1.377072 -1.316521 -0.060055 -0.633808 -0.332344 0.034563 0.022182 0.014717 0.746907 0.213898 0.676317 0.843409 -0.239117 -0.312202 -1.404532 0.612286 -0.303750 0.845999 -0.998332 0.838077 -0.656863 0.210268 1.561003 0.190684 1.695457 -0.772972 1.486795 -1.045651 0.482945 0.053176 0.219429 -0.273294 -0.190781 0.300005 0.239457 0.263047 0.820024 0.679339 0.497475 0.835491 -0.363668 -0.411143 -2.929203 -0.095903 2.454699 2.079196 -0.586469 -0.090886 0.134915 2.470102 1.409383 -0.360188 -0.971440 3.276194 1.059223 0.273082 -0.130644 1.002717 1.159053 0.191681 0.192406 0.254028 0.405586 0.306119 0.760703 0.014568 -0.151787 0.449407 -1.056094 0.889363 -0.264918 0.861352 1.600343 2.481432 2.452009 -0.474946 0.210996 0.748122 0.634370 0.667367 -0.740632 -0.082902 0.873283 0.004596 -0.129905 0.270653 0.508372 0.376089 0.563026 0.428961 0.511550 0.471210 0.542563 0.001244 -0.309597 0.858027 0.271632 0.152754 -1.347941 -1.099889 -0.713932 -0.010113 0.761333 0.855840 0.461852 0.439320 -1.574944 0.775550 0.889122 0.678761 1.352578 1.981840 0.208359 0.783507 0.602007 -0.318985 0.206112 0.357966 0.571977 0.508676 0.440146 -0.191977 -0.571412 0.060442 0.379971 -0.596136 -1.000176 -2.229055 -2.150112 -2.096067 -0.062138 -1.495284 -0.858987 0.576460 -2.156106 -2.393853 0.976279 0.636296 -0.784794 1.586270 0.843176 -0.429840 -1.016555 -0.643847 0.127162 0.412563 0.384704 0.048167 0.478366 0.834424 0.878671 0.638727 0.656658 0.494868 -0.008527 -3.120106 -2.636473 -1.324658 0.758021 0.348522 -0.164478 1.730665 -0.604979 0.105544 0.712099 1.421221 0.363348 -0.302025 0.663283 0.897847 -1.825243 -1.489229 -0.070152 0.051618 -0.095699 0.040563 0.435515 0.808155 0.794100 -0.141734 -0.401039 0.453599 0.464259 -1.722343 -1.542572 -3.176022 -1.753084 -0.170200 1.475967 1.195086 -4.562386 -0.378500 -1.162589 -3.815177 -0.845798 -1.785627 0.544145 -0.894229 -2.214363 -1.298119 -0.003989 -0.154188 -0.108012 0.000086 0.418703 0.647279 0.031511 -0.564588 -0.202773 0.998582 -0.847443 -0.852675 0.216400 -0.040554 -0.118594 1.710556 0.345570 1.491914 -1.486354 -2.157249 0.323110 -1.666959 -1.512066 -1.518576 -1.596247 -3.094319 -1.811328 0.022741 0.154992 -0.147296 -0.099765 -0.027995 -0.083918 0.420697 0.179244 -1.138708 -1.037840 -0.755847 -0.995740 -0.398891 -0.012126 0.917309 1.296110 -0.648450 0.678401 1.813011 -3.283626 0.582431 1.916855 -2.724349 -2.636296 -2.193230 -2.085767 -2.902605 -1.080701 0.284008 0.273251 -0.108039 -0.052723 0.023112 0.035960 0.112622 -1.096811 -1.782119 -1.717577 -1.915561 -1.522935 0.421916 1.590968 2.586101 1.241710 0.582987 5.649169 0.353062 0.221628 0.521454 -1.815115 -1.304564 0.612437 -0.024105 -3.105394 -1.848662 -0.033762 0.612680 0.960829 0.130064 0.063278 0.029371 0.069883 -0.116075 -1.337286 -0.813988 -1.819218 -1.030930 -0.660587 -1.233499 0.437582 -0.939402 -0.306846 3.374659 0.295985 -3.125444 -1.739737 -0.646129 -1.604862 -1.512873 0.050155 1.156196 -2.382150 -1.203555 -0.470286 -0.281543 1.179746 0.041461 0.015791 0.002383 0.132513 -0.235167 -0.297030 -0.283796 -0.097725 1.466111 1.791539 2.254012 1.133074 -0.796519 0.765161 2.418861 -1.283766 -3.482193 -3.306692 -2.385795 -6.054232 -2.791961 -0.080453 -3.167046 -2.827519 -0.258466 -0.306592 -0.000503 0.756717 0.149049 0.026321 0.006722 0.084384 -0.561423 -1.376272 -0.678232 -0.239976 0.198720 0.975816 0.628153 -0.123995 -0.287296 0.432607 -0.935756 -4.465703 -1.108472 -1.649119 -1.309608 -1.072894 -1.160670 -0.812102 -2.437539 -2.426871 -1.216723 -0.699016 -0.031772 0.314309 0.029353 0.047646 0.048722 -0.179018 -1.095477 -0.940787 -0.189689 0.105219 0.057172 -1.617314 -2.391035 -1.938201 -0.712455 0.124639 -0.130293 -1.046840 0.159417 0.158824 -1.204721 -2.968366 -1.367404 -1.927008 -0.814922 -2.189407 -0.729485 -1.300664 0.565541 -0.283993 0.025156 0.014433 0.025373 -0.210074 -1.022701 -1.041569 -0.688429 0.118509 -0.886284 -1.940593 -1.882084 -2.284034 -0.935963 0.238553 0.652017 -3.363237 1.346866 -1.062508 -0.252602 -2.217454 -2.755677 -0.444725 -1.804453 -0.687415 -0.091754 1.167285 0.176996 -0.576453 0.022069 0.034673 0.015699 -0.129815 -0.192857 -1.147190 -1.438340 -0.775741 -1.120278 -1.385556 -0.978800 -0.485771 -0.505724 -0.108578 0.670819 -1.778692 -1.620958 -0.581215 -1.440674 -1.587590 -2.903209 0.562765 0.184221 -1.357152 0.564558 0.158780 -0.356496 -0.576145 0.055967 0.047247 0.036336 0.137676 0.095622 0.104321 -0.412697 -0.589954 -0.753251 -0.079541 -0.471915 -0.276627 2.471804 2.312082 -2.164923 -0.907591 0.792105 0.543706 -1.707494 -3.236940 -0.753034 -0.617366 -0.921611 -1.818991 -0.288846 0.398120 -0.122552 -0.389981 0.039181 0.037288 0.041190 0.042823 -0.029798 -0.223364 -1.047751 -0.577703 -0.210161 0.262327 -0.471739 -1.328604 -1.403968 0.265273 -1.490762 -0.289045 1.605275 1.091101 -1.593657 -4.187444 -3.002260 0.996920 0.278306 -0.701522 0.634517 0.664266 -0.191322 0.030631 0.008834 0.027390 0.028915 0.030152 0.021806 -0.042975 -0.604166 -0.162639 -1.194953 -0.934314 -1.084970 -1.683012 -1.415588 -1.386178 -2.119359 -1.917614 1.466835 1.073164 -1.766590 -2.351243 0.476232 -2.173598 0.118812 -0.984407 0.293223 0.585585 0.013702 0.010871 0.022435 0.005422 0.008371 0.044760 0.002279 -0.030381 0.069210 -0.481066 -1.338629 -1.319513 -1.323604 -2.022725 -1.351027 -0.004752 1.111295 1.004368 2.000061 0.554081 -1.573655 -2.747118 -2.082389 -0.383172 -0.299909 0.043480 0.694264 0.043485 0.534175 -0.092492 0.036886 0.008531 0.019712 -0.151832 0.027622 -0.015987 -0.047204 -1.355322 -1.333597 0.029683 0.237340 -0.113584 -0.590087 -0.852798 -0.785463 0.402073 -0.054705 0.321432 -0.724700 -2.462039 1.078844 -0.832947 -0.209744 -0.062012 0.110786 0.027961 0.514200 -0.128176 0.044507 0.009287 0.043780 -0.188815 0.033579 0.006914 -0.061315 -1.355188 -0.300279 -0.173848 0.042013 -0.564176 -0.581636 -0.147958 0.634897 0.957875 0.255897 -0.202501 -1.317148 -2.490689 -0.947502 -0.789790 -0.603934 -0.725848 0.052699 0.580378 -0.897556 -0.156019 -0.085907 0.048937 0.025427 -0.021253 -0.117770 -0.125386 -0.178983 0.019640 0.114550 -0.907379 -0.648328 -0.808542 -0.052977 -0.031203 -0.228025 0.875504 0.508777 1.191458 1.342214 -0.115436 -0.315984 -1.834024 -1.361241 -1.868679 -1.430509 -0.378805 -0.007502 0.032257 0.049824 0.039440 0.031260 -0.079427 -0.152652 -0.239524 -0.207061 -0.108540 -0.322062 -1.360262 -1.219203 -0.406838 0.085474 -0.270406 0.638152 1.889449 2.218973 0.337252 -1.246285 2.050894 -0.041097 -1.744440 -0.998390 -1.697589 -1.652865 -0.368190 -0.062306 0.030872 0.047802 0.034975 0.033756 0.009677 -0.138812 -0.252774 -0.167498 0.022337 -0.126486 -0.699635 -1.179360 -0.530627 -0.388918 -0.861364 0.714016 1.642469 -0.919151 -1.280644 0.525946 1.052401 -0.886797 -1.458134 -2.282420 -2.457315 -1.687311 -0.303735 -0.022675 0.019199 0.046674 0.046745 0.015455 0.188462 0.018673 0.081185 0.327130 0.828299 0.177187 -0.713590 -1.779012 -0.621963 -1.493170 -2.024159 -0.106977 0.623467 -0.095474 0.549692 1.954524 1.000868 -1.913016 -1.444579 -0.854731 -1.495002 0.373456 -0.597124 0.014413 0.039544 0.012959 0.042832 0.008010 0.263138 0.191744 0.481354 0.724563 1.251966 0.279334 -0.115674 -0.615456 0.365048 -0.164255 -0.369384 -1.672960 -0.776496 1.604035 0.488281 -1.010111 -1.524509 0.535513 0.527867 -1.966708 -0.555127 1.250955 -0.384112 0.054899 0.048159 0.015087 0.017255 0.016425 0.304097 0.060762 0.261561 0.230867 0.846934 0.933601 -0.204114 -0.532078 -0.761563 -1.197094 -0.904649 0.742093 -1.329518 0.476303 -0.239333 -1.431982 -1.463585 -1.160287 -2.251677 0.999966 -0.155301 -0.364169 -0.467015 -0.526339 -0.370355 0.012826 0.048168 0.050301 0.294682 -0.016138 -0.254234 -0.464962 -0.248150 -0.008316 -0.039004 1.073399 0.065999 0.266549 -0.452170 0.409943 0.090341 -0.122848 -0.686318 -0.066055 0.215282 -1.072462 -2.349810 -0.295887 -0.341431 -0.014919 -0.763258 -0.817729 -0.412172 0.129152 -0.088108 -0.074641 0.265467 0.142760 -0.290083 -0.511099 -0.932169 -0.156111 -0.693805 -0.318242 -0.895501 -1.251334 -1.422004 -1.354135 0.123215 -0.148268 0.529527 -0.904877 1.962949 -0.942700 -0.635547 0.334382 -1.632227 -0.302949 1.861848 -0.338509 -0.853285 0.190393 0.081622 0.023290 0.206769 0.436856 0.360917 0.078901 -0.247490 0.856671 -0.447602 -0.884078 0.095294 0.614954 0.920223 0.686114 -0.770624 -0.389931 1.338957 0.165832 1.767495 1.209937 -1.817975 -1.440668 -1.046101 -2.060568 2.044229 0.017756 -0.495372 0.254980 0.212438 0.064926 0.209429 0.478000 0.383007 -0.396802 0.518478 0.219951 0.732935 0.870086 -0.377736 0.133805 0.628232 -1.586769 -0.278803 -1.433931 -0.538850 -0.841023 -0.797812 2.758736 0.948438 -1.756408 -0.963736 0.291527 1.620804 -0.333870 -0.094446 0.337673 0.301273 0.139913 -0.011350 0.346672 0.015478 -0.197733 -0.184191 -1.116140 -1.247850 -0.078328 -0.253921 -0.134505 -0.086292 0.335228 1.179484 -1.929056 -0.015400 -0.873100 0.436210 0.892775 0.874363 1.531018 1.257528 -1.037031 2.281342 -0.535058 0.577091 0.363876 0.454946 0.317030 0.037881 -0.198646 -0.955940 -1.898646 -2.275266 -2.024020 -1.611865 -1.255107 -1.072854 -0.646203 -1.448072 -0.338340 0.320561 0.091889 0.498363 0.010833 1.368784 0.905818 2.526608 0.787577 0.638633 -1.472540 0.842970 -0.890266 0.381153 0.434457 0.563992 0.343237 -0.014814 -0.133132 -0.639316 -1.669152 -2.307633 -1.819971 -1.772665 -1.667871 -0.823146 -0.061670 -0.362871 -2.197800 -0.401328 1.143080 0.163248 0.047935 0.538401 1.785403 0.394458 -1.099821 -4.312786 -3.240254 0.225854 -0.766426 -0.801590 0.392071 0.204955 0.323058 -0.145551 -0.106048 -0.605588 -1.434649 -1.649808 -2.210300 -2.532018 -1.939588 -3.555419 -4.277700 -3.941715 -3.686677 0.109823 0.549249 -0.533496 0.837999 0.215566 3.088478 1.273254 0.023513 -2.114909 -4.235167 -2.412281 -0.622974 -0.725990 0.375804 0.261926 0.325847 -0.401498 -0.240772 -0.148166 -1.118193 -0.902516 -1.348573 -2.260290 -1.482449 -1.886504 -0.746372 -3.185325 -2.153315 -2.186893 -0.384370 -1.201592 -1.410571 1.108805 1.400859 -3.151458 -1.726166 -2.820120 -1.133272 -2.155691 -0.721233 -1.621166 0.306818 0.291919 0.347184 -0.274168 -0.347374 -0.535523 0.101100 -0.146476 -1.089532 -0.514990 0.006032 0.016587 -0.597506 -1.842511 -1.257727 -1.223095 -0.124472 -0.866579 -0.212664 1.433433 -4.162576 -2.530588 -3.969706 -4.304953 -1.389066 -2.327434 -1.219415 -1.161623 0.541442 0.325013 0.010376 -0.063830 -0.376083 -1.002073 -0.175440 -0.935362 -0.519164 0.188100 -0.860845 2.566964 1.142590 -1.117055 0.200592 0.870482 -2.483160 -1.879021 1.697088 -2.113720 -5.287924 -2.711705 -1.308616 -0.789161 -0.237947 -1.677026 -0.435172 -1.035870 0.410938 0.002686 0.026743 0.021446 -0.141941 -0.337449 -0.188905 0.664448 1.749958 2.997489 2.452554 2.312702 1.074794 -0.463416 -0.128356 -0.864160 -0.167662 0.532978 -0.601331 -2.957433 -2.727565 -4.037431 -2.543895 -0.275790 0.135551 -1.921541 -1.740947 -0.943995 0.280768 0.038667 0.024019 -0.022334 0.000346 -1.097415 -1.519738 -2.562161 -1.301576 0.509512 1.266323 1.132124 0.682197 1.354395 -0.380189 1.695324 2.541009 -0.407569 -1.977682 -3.013168 -3.119790 -0.944249 1.295819 0.271562 -0.017024 -1.906748 0.431571 0.344098 0.014109 0.020782 0.043672 -0.014585 -0.679030 -0.106888 -0.876117 -1.369366 -0.411832 1.337551 1.260327 0.409567 -0.982591 -0.620697 0.684160 1.667189 -0.687996 0.852751 -0.008354 -0.930317 0.090871 0.735943 -1.395263 -2.609260 0.644568 -0.534049 -0.350043 0.400635 0.146203 0.133434 0.151302 0.005884 -0.606848 0.001744 -0.559006 0.244765 1.516256 1.729340 -0.066678 1.590861 -0.727451 -1.973396 0.612242 0.525551 1.104029 1.449502 0.771607 -0.541303 -1.885341 -2.927534 -0.031848 1.031898 1.259426 -0.493643 -0.256392 0.425291 0.228753 0.243869 0.226892 -0.009132 -0.603958 -0.230359 -0.819355 0.210309 0.829378 2.143717 1.345768 1.296909 0.139948 2.059438 1.595008 0.589165 1.070154 0.562745 -0.830753 1.021878 0.406536 0.766888 -1.527531 -2.504991 -0.691898 1.908551 -0.391595 0.570029 0.327669 0.350593 0.317858 0.026542 0.240107 0.042529 -0.949175 1.178944 1.864506 0.607889 0.316792 1.254428 2.137342 2.067205 1.961785 0.954242 3.581136 1.417029 3.065338 3.536611 2.965190 3.848576 0.791118 0.814379 0.267536 -0.216184 0.213214 0.671095 0.351281 0.346674 0.306273 0.018440 0.064236 0.111764 0.762900 0.885973 1.665434 0.310761 0.409538 1.161839 1.031510 0.540891 1.095709 -0.423255 -1.904712 -1.249095 -0.924145 -0.140180 -3.522767 1.072314 3.331332 1.922979 -1.905480 -0.941070 -0.000710 0.014779 0.012922 0.023341 0.029979 0.031263 0.086534 0.342725 1.055652 1.560066 1.926488 0.684253 0.665416 -0.199220 -0.424537 0.774141 0.449544 1.855034 -0.754129 -0.559994 -1.727966 2.125891 -4.409659 -1.206905 1.986986 -0.853380 -1.702189 -0.631649 0.098749 0.030745 0.036995 0.031025 0.049864 0.011905 0.001083 0.116489 0.561666 0.765038 0.799949 0.046402 0.213610 0.382099 -0.432277 -0.382338 -2.166246 0.581004 0.105150 -1.026546 -2.344912 -3.006951 0.744281 1.628635 1.079719 0.302913 -0.837565 0.632492 0.213723 0.454881 0.028637 0.011602 0.004335 0.811895 0.017673 0.136130 0.402656 0.642454 0.540028 -0.728653 -0.863583 -0.736160 0.550350 -0.086744 -0.071854 0.330205 -0.844362 -1.926688 -3.218898 -3.532901 -1.209308 0.838600 1.206256 0.394679 0.437536 0.633791 0.348174 0.576932 0.005889 0.039304 0.022445 0.965598 0.048971 0.138292 0.403259 0.589910 0.448343 0.935802 -0.027371 1.030449 1.966062 2.656346 1.096215 1.113476 -0.262826 -1.189686 1.854200 4.193129 2.167890 1.990273 1.214670 0.852822 0.653427 0.244566 0.302698 0.632341 0.447076 0.017491 0.042392 -0.038527 -0.023808 -0.051743 -0.024473 0.067517 -0.049923 -0.179813 -0.299554 -0.522772 -0.483706 0.076518 0.719585 0.456156 0.659772 -0.575544 -0.213794 -0.156480 -2.074017 0.314601 0.293356 -0.892545 -0.529521 -0.037980 0.284359 0.049742 0.035755 0.034955 0.030112 -0.039171 -0.048232 -0.079162 -0.036686 0.098881 -0.144144 -0.404365 -0.482617 -0.229582 -0.394084 -0.505699 -0.188457 -0.252122 0.422913 -2.056059 -2.193891 0.491777 0.721201 0.529436 1.463277 0.220995 -0.105411 -0.064886 0.341324 0.004690 0.005126 0.023057 0.026713 -0.031196 -0.046288 -0.069315 -0.059247 0.322856 0.107090 -0.188778 -0.705368 0.475525 0.797439 0.740739 1.098051 -2.189138 -0.733744 -0.242621 -0.205791 4.022108 1.089660 2.312200 0.731634 -0.657463 -0.280921 -0.143862 0.279858 -0.053285 0.021582 0.028128 0.032610 0.041870 0.017965 0.089369 0.292802 0.506973 -0.227707 -0.738125 -1.695167 -0.920486 -0.747064 -0.483457 -1.374292 -1.354512 -2.402883 -0.196367 0.359074 2.479347 0.614905 0.791914 -1.306016 -0.348837 -0.093284 -0.769759 -0.056027 -0.075150 0.021086 0.023755 0.008318 0.035942 0.033488 0.258207 0.183225 0.100808 -0.567879 -0.308857 -1.123303 -0.102236 -0.744435 0.139570 0.198610 -0.786865 0.625533 0.306385 1.055255 1.199450 -0.913334 -0.161925 -1.519529 -0.032615 -0.653128 -0.886379 -0.105521 -0.095625 0.005788 0.015036 0.037531 0.079716 -0.028448 -0.034958 -0.091042 0.151247 1.340137 0.998133 -0.267233 -0.754894 -2.132754 -0.478161 -0.002154 -0.641273 -0.364112 0.865851 0.477728 -0.907034 -0.824153 -0.964861 1.071925 -1.470249 -1.305781 -1.125189 -0.497755 -0.203764 0.035553 0.004488 0.005721 0.112034 -0.109275 -0.366151 -0.491688 -0.228100 0.396581 0.804551 0.262930 -0.725612 -1.007543 -1.255591 -0.306458 0.197215 0.284212 0.652710 -1.934250 -0.822899 2.361843 0.384251 1.604311 -0.508559 -0.468804 -1.238494 -0.426623 0.464974 -0.049798 0.027092 0.039158 0.037173 -0.099565 -0.276027 -0.439087 0.189045 -0.051098 0.613916 -0.406967 -0.824840 -0.418273 -0.776310 -2.300346 -1.538996 1.013453 0.787822 0.278504 -2.094304 -1.283806 -0.081339 0.874182 0.692225 -0.773829 0.031138 0.028045 0.620404 0.232711 -0.068693 0.044334 -0.022766 0.198921 0.484113 0.005401 0.533494 -0.193841 -0.938011 -0.507238 1.001176 1.905789 1.310430 -0.748414 -0.878797 -0.665437 0.378008 -0.540603 1.136585 -0.300935 -1.704438 -0.504933 1.795603 -1.255732 0.357081 -0.156774 0.407472 0.000704 -0.052050 0.057539 0.111996 0.428628 0.731799 0.198304 0.496916 -0.377554 0.297234 0.201490 -0.501345 -0.979223 0.151549 -1.897610 -1.599138 0.646126 0.924804 0.229040 -0.544139 -1.669463 -2.342412 -0.575432 -0.403294 -0.631702 0.882453 -0.028010 -0.257362 0.040940 -0.007677 0.027540 0.002341 0.754517 0.697722 0.340861 0.180723 -1.321194 -1.666149 0.917809 0.043292 -0.750908 0.245795 -2.668647 -2.350701 1.143981 0.555352 0.897243 -0.772454 0.238844 -2.166162 -0.157582 -2.091124 -0.352932 0.256295 -0.800961 -1.083082 0.010946 -0.217952 0.051171 0.073698 0.130154 -0.074173 -0.382340 -0.717862 -1.519288 -1.220120 -0.898070 0.796846 -0.191064 -1.577905 -2.500551 -2.099257 -0.054307 1.827391 -0.451125 -0.009865 -2.905410 -0.485462 -1.075627 -1.736054 -2.664995 0.286187 -1.888596 -1.228255 0.005231 -0.217593 0.030244 0.101469 0.193097 0.131403 -0.205481 -0.448435 -0.562723 -0.758159 0.003241 -0.091749 0.049934 -0.274143 0.552084 -0.311103 -0.464746 1.242901 0.777856 0.448821 -0.530123 -1.827759 -2.859459 -2.085488 -3.750464 -0.191424 -1.744646 -1.650985 -0.271631 -0.033834 0.007976 0.209753 0.338673 0.220007 0.013267 -0.268755 -0.664629 0.002677 0.946273 0.004959 -1.515186 0.074100 -1.685690 -0.807746 -0.168774 2.025426 1.091085 0.644823 -2.358277 -2.014652 -0.552557 -0.335465 -1.687877 -1.908255 -0.714983 -1.190861 -0.237742 0.031145 0.029401 0.140610 0.354134 0.106427 -0.249417 0.612578 0.260996 0.280713 0.209212 -0.671244 -0.556806 -0.877467 1.226372 -0.005647 0.588034 2.204211 -0.199567 0.075890 -0.394801 0.425087 -0.712376 0.563243 -1.446698 -0.239433 -0.631796 -0.617592 -0.248999 0.031538 0.003383 0.152492 0.291066 -0.106287 -0.165172 0.064862 -0.494935 -0.431747 -0.643963 -0.460755 -1.533962 0.823893 1.277346 -0.206921 1.255192 0.986779 -0.244295 -0.933214 -1.089041 0.223587 -0.862151 0.296410 -1.418800 -0.538996 -0.533325 -0.087159 -0.235785 0.015867 0.005146 0.152841 0.261449 -0.586491 -0.615515 -0.474318 -0.438155 -0.018435 -1.778044 -0.103134 -1.193889 -0.271103 1.141669 1.163893 -0.416412 -0.276915 -1.152296 -1.936913 0.021306 0.335333 0.299231 1.380724 -0.021461 0.696585 -0.082618 -0.030073 -0.098958 0.017948 0.026420 0.254244 0.199585 -0.416871 -0.734444 -0.180531 0.011845 1.094749 -0.167293 0.098407 0.808665 -0.199597 0.787959 -0.355723 -1.350207 -0.433055 0.017193 0.337064 -0.483744 0.915987 1.316613 -1.706941 0.365990 0.192739 -0.433866 0.171983 -0.182998 0.030845 0.035541 0.044644 0.086365 -0.145985 -0.775183 0.136672 0.033108 0.255921 0.569047 0.122501 -0.616234 1.207100 -0.163989 0.534280 -0.726850 0.035321 -0.617166 -0.858365 -2.112845 0.402386 2.709072 -0.715678 0.837698 0.841367 1.011240 0.045206 0.001421 0.008169 0.047561 -0.116290 0.206158 0.106878 -0.559305 -0.021285 0.045752 0.094449 -1.032055 -1.078583 -0.669897 -0.548972 -1.223749 -0.267306 0.075299 -1.648654 2.970247 -0.568348 1.450085 0.945564 -2.043624 -0.752167 2.122558 0.784226 0.313216 -0.001896 0.049643 0.074404 0.099072 0.002634 0.233796 0.426576 0.125140 0.276234 0.379996 0.308812 -1.096364 -0.628944 0.130674 0.656733 -1.222875 -0.248039 0.179660 -1.554749 0.475608 -0.603409 1.472830 -0.744765 1.049648 3.348352 0.555067 -0.313242 -0.021944 0.330353 0.069123 0.062569 0.112639 -0.012152 0.115989 0.229605 0.415002 0.312586 0.112667 -0.013991 -0.049245 -2.232849 -0.490271 -0.126535 0.152443 -0.778346 -1.271859 -0.488193 -0.092413 0.605366 -1.206611 0.759032 0.042042 -0.512146 -0.156038 0.474677 0.415467 0.425077 0.034153 0.012078 0.015995 0.031161 -0.068541 -0.185705 0.031671 0.630425 0.415847 0.328121 0.444197 0.723322 0.749617 0.515423 -0.941580 0.636199 -1.052536 0.195838 -0.629007 -0.458859 -0.380708 -1.322357 0.281151 -1.230285 -1.392586 0.131977 0.593462 0.384978 0.027456 0.022607 0.066077 0.013676 -0.013189 -0.008888 0.407585 0.713827 0.667659 -0.274159 -0.367080 -0.288945 -0.479777 0.930202 -0.460475 0.575616 -0.459051 -1.712586 2.041082 1.357202 -2.175129 -0.901393 1.589642 -1.896345 -1.796281 0.077013 0.205920 0.045015 0.039249 0.042048 0.029298 0.025865 0.022228 0.076444 0.484515 0.844786 1.004782 0.931639 0.657941 -0.403773 -0.509071 -0.344915 -1.150761 0.299481 -0.323999 -0.040375 -1.375436 -0.184207 -2.209121 -0.849909 -0.625198 -1.700493 -0.447839 0.074370 0.092919 0.027637 0.010908 0.028193 0.009366 0.038479 0.018274 0.047083 0.229084 0.304826 0.162406 -0.087967 0.222138 0.952637 -0.162587 -1.097236 -1.828721 1.504048 2.013643 -0.283219 -0.062310 -0.827195 0.931009 -0.634954 -0.741149 -0.176423 0.011214 0.369274 -0.382299 -0.001835 0.000195 0.026434 0.003430 0.540357 0.020042 0.043829 0.005392 -0.011782 -0.023791 -0.089953 -0.458025 -0.614748 -0.524414 -0.808399 -0.573351 -0.136088 -0.109759 0.277340 -0.061681 -0.463507 -1.242925 -0.402277 0.283204 -0.055790 0.393004 0.046863 -0.415359 -0.001256 0.011381 0.045731 0.034609 0.681011 0.034122 0.003419 0.036362 -0.011011 0.002994 0.165205 -0.137801 0.027811 0.391114 0.630601 -0.146531 0.550538 -0.020895 -0.559020 1.053881 1.161432 0.958294 0.580027 0.108940 0.410042 0.047985 -0.436903 -0.329303 0.019336 0.020595 0.046017 0.010063 0.099443 0.108309 0.189706 0.224106 0.030893 0.282183 0.717976 0.395435 0.513021 -0.840228 0.011558 0.868228 0.713652 1.555954 0.395587 -1.328634 -1.420932 -2.353286 -0.495832 0.485713 0.155669 0.429860 0.101621 0.169243 0.017084 0.010651 0.022353 0.011801 0.112298 0.169824 0.167829 0.195654 0.015018 0.125518 1.014491 1.604309 0.157010 -3.035978 -0.631242 0.179325 0.706500 1.312542 0.112782 0.916415 -1.553189 -2.127481 -1.183038 -1.181807 -0.175047 1.068703 0.063701 0.229458 0.048566 0.013884 0.021940 0.015776 -0.041974 0.195830 0.168566 0.160640 0.403572 0.904717 0.121150 0.684718 0.227078 -2.242327 -0.189063 0.654380 -0.255905 2.729664 0.252326 -0.923358 -0.863190 0.114763 1.431957 -1.541956 -0.604921 0.707152 -0.344230 0.081881 -0.129826 0.039605 0.014720 0.007785 -0.424468 -0.195805 -0.428918 -0.810501 -0.906364 -0.265059 -0.737940 -0.242536 -1.432759 -2.700775 -1.854164 -2.681124 -0.750344 1.566769 1.198355 -0.440623 -2.150636 -1.156536 -1.102916 -2.028922 -0.078204 -0.233598 0.051150 -0.164087 -0.148731 0.033763 0.014505 0.033841 -0.563024 -0.512032 -1.072429 -1.917317 -2.115958 -0.167145 0.846107 -0.477916 -2.042025 -1.491572 -0.874524 -1.462740 -1.269500 -1.504584 0.754320 0.524253 -2.583285 -1.320870 -0.721282 -2.043916 0.635596 0.929113 0.257151 -0.239324 -0.231883 0.030046 0.006022 0.038911 -0.619331 -0.337094 -1.179788 -2.073842 -2.937421 -0.777787 1.579738 0.060159 -1.377512 -1.987363 -1.964276 -2.646678 -1.685300 0.892709 1.910796 -0.687037 1.301233 -0.380946 0.285631 -0.097975 -0.595711 1.620907 0.463725 0.886840 0.450219 0.045848 0.037615 0.050270 -0.615846 0.006783 -0.287350 -0.426566 -0.048365 0.519138 -1.654309 -1.697860 -0.194073 -1.333570 -1.697106 -3.274846 -2.600404 -0.302521 -0.063012 1.381675 -1.091572 -0.015623 -0.753282 -0.424310 -1.295216 0.837807 0.403024 0.749258 0.451074 -0.262701 -0.041562 -0.062849 -0.637297 -0.531698 -0.518072 -0.880986 0.191900 -1.908267 -2.136378 -1.416847 -2.721778 -1.395101 -0.701615 -2.177421 -2.162135 -1.317189 1.141942 2.165520 -0.012349 -0.267659 0.100996 0.234225 -0.831040 -0.869476 -2.661496 -0.081485 0.200228 -0.102586 -0.209150 -0.101551 -0.537202 -0.147841 0.469077 -0.106054 -0.414932 -1.331416 0.072926 -0.573936 1.223169 0.334533 0.545610 0.000068 -2.596363 0.542306 1.095905 0.311133 -0.731262 -1.180709 -2.399121 0.419578 -0.155056 -0.751669 -3.489751 0.372234 -0.075711 -0.160407 -0.232391 -0.045296 -0.060171 0.160452 0.982209 0.057242 -0.101117 0.859796 1.247779 2.324189 -0.172214 2.247354 0.672582 0.992180 -0.513669 -2.219937 0.147939 0.682345 -1.044981 -2.029589 -1.488049 -0.402939 -1.455211 -2.274045 -2.507135 -0.636542 -0.122929 -0.271192 -0.253006 -0.043955 0.022939 0.442843 0.600291 0.354018 1.394290 1.255836 0.958179 0.375188 1.106517 0.353803 0.975246 0.294347 -1.024268 -1.545500 -2.285647 -0.082637 0.509381 -1.671352 -0.380215 -3.985032 0.805813 -0.373719 -2.015615 -0.559853 -0.173236 -0.359363 -0.403278 0.147425 -0.139909 -0.000125 0.004048 0.538516 0.911602 0.109378 -0.590154 -1.464685 -0.635380 -0.822371 1.135130 0.769306 -0.445138 0.041478 -1.097426 -2.557570 -0.231737 0.067018 -1.877268 -0.800329 -3.235115 -2.568669 -0.737136 0.979141 -0.005815 -0.289142 -0.259461 0.066786 -0.054852 -0.089060 -0.881411 0.285019 1.101186 -0.977010 -0.217923 -1.660168 -1.539451 -1.409923 0.501269 -0.332474 1.327252 2.098282 -0.571181 -0.713749 -2.345002 -0.305390 -0.652411 -1.063620 -3.248831 -0.217275 -1.949984 0.315125 0.917697 0.015885 0.368965 0.118224 -1.124727 -1.204442 -0.731775 0.123915 0.814590 1.402733 0.944888 0.655345 1.619471 1.477929 0.712102 1.753616 1.820640 1.590124 -1.629477 -2.238722 -3.566207 -0.982829 0.509900 1.431125 -2.306819 -0.608680 2.488136 1.164205 0.742203 0.143551 0.342039 0.107556 -0.857266 -1.576837 -1.467032 -0.713793 1.290572 3.328279 2.118234 1.401649 1.918331 1.613462 2.186775 3.769155 0.708074 0.770091 -2.320495 -0.755381 0.014698 -0.353221 1.464193 0.858916 1.566206 -0.346681 0.945400 1.142733 1.215382 0.204425 0.106746 0.035530 -1.000986 -0.706518 -1.301243 -1.894375 1.816286 3.040889 1.635817 1.629400 2.002320 0.281809 -0.408212 0.345323 2.188786 -1.087640 -0.196843 -0.248879 -1.335199 -0.373000 2.076583 -0.079039 -1.717380 0.019779 -1.261252 0.013907 0.581826 -0.287900 0.035018 0.004392 0.077551 -1.193918 -0.476472 0.190455 0.838068 0.304420 0.224412 -0.637909 -0.276818 -1.246672 -0.799533 0.922900 1.413706 0.748547 0.519758 0.523499 0.258416 -4.279139 -2.858530 -2.391917 -2.372225 -0.091169 -0.062280 -0.864696 0.531938 -0.607104 0.012662 0.011102 0.059519 -0.933988 -1.372366 -1.149697 -1.161575 -1.710073 -0.720227 -0.927577 -0.058274 0.033874 -0.328842 -2.448463 -1.216466 -0.016690 1.361045 0.145095 -0.973594 -3.105440 -1.735458 -2.025491 -1.208310 0.512482 -0.728175 -0.429936 0.519930 -0.489831 0.032038 0.033990 0.029200 -0.060600 -2.236376 -1.512598 -0.670674 1.274108 0.490084 -1.578305 -1.257577 0.002298 0.377773 -1.284373 -2.294820 -2.097704 0.820140 2.601905 -0.160703 -1.418119 -1.963744 -0.420714 -2.141611 -0.261199 -1.165520 0.824015 -0.419854 0.013944 0.007883 0.050142 -0.057407 -0.567265 -2.331916 -3.092733 -1.256804 -0.767123 -0.317447 -1.194626 -1.030292 -1.311895 -1.148246 -1.333018 -0.678624 -1.644410 0.422424 1.035851 -1.214709 0.442435 1.468377 0.390070 0.539479 -0.682489 -1.281431 -0.422638 -0.689650 -0.009489 -0.024134 -0.011294 -0.131458 -0.662772 -1.088007 -3.313110 -2.085837 -0.809506 -0.721421 1.668539 -0.131018 -1.192654 -1.508408 -1.424697 1.320294 -0.841771 0.779309 2.117746 -1.275875 1.912566 0.918165 1.796286 -0.274492 0.284590 0.079329 -0.133346 -0.508719 0.007577 0.021546 0.015952 -0.150714 -0.381062 -0.643260 -1.791580 -2.175175 -2.053076 -1.691815 -1.300171 -0.071766 -1.868329 -1.034039 -0.171402 -1.269198 -2.422077 -0.287660 0.911135 0.878822 -0.589753 -1.567445 -0.592174 -2.941297 0.738531 2.253679 0.350004 -0.580470 0.031233 0.042151 0.036526 -0.020619 -0.065807 -0.055471 -0.757486 -2.243460 -0.876854 -1.200085 -1.790874 -1.807335 -2.209561 -1.736716 -1.032842 -1.708334 -0.099714 0.301085 0.935964 1.731484 0.671169 -0.001573 -0.341977 -0.827137 0.387804 -0.566895 -0.504969 -0.677458 0.068681 0.024497 0.050502 0.023163 0.074031 0.111170 0.305479 -0.142905 -0.354657 -1.845801 -1.655185 -0.730077 -1.286329 -1.860302 -0.688455 0.457173 -0.673646 -0.255374 0.013415 0.950324 -3.045769 -0.084006 3.036185 -0.746800 0.724498 -0.521369 -0.953095 0.049480 0.002719 0.021897 0.017656 0.021692 -0.010264 0.062336 0.418939 0.549991 -0.048488 -0.774971 -0.958010 -0.506775 0.064408 -1.138879 -2.273623 -2.518421 -5.046191 -0.995502 6.137782 0.649558 -1.599074 1.668355 1.764655 0.995246 1.066600 -0.164090 -1.059700 0.045244 0.028701 0.033060 0.019279 0.022445 0.011644 0.081843 0.383386 0.620780 0.296039 0.314539 0.761854 -0.503426 -1.731460 -1.111371 -1.403495 -1.922748 -2.197881 2.068791 2.519775 1.593642 -1.934299 2.658389 0.418413 -0.468120 -0.062269 -0.700958 0.077065 0.236481 0.022822 0.020551 0.019907 0.433414 0.031052 0.065513 0.212965 0.090463 0.011574 -0.713727 -0.720123 -1.387265 -3.086795 -3.204581 -3.895007 -3.930750 -2.617349 -1.234893 -0.180273 0.231939 2.681368 0.387663 -0.212757 -0.475015 -0.834673 -0.947193 0.085484 0.277798 0.025655 0.024815 0.004653 0.541046 0.017680 0.082446 0.212934 0.017324 -0.286233 -1.208992 -1.089643 -1.366642 -1.861207 -3.925668 -3.874447 -2.068785 -0.793526 0.915708 1.807153 1.720464 1.551978 1.518607 -0.188789 -0.356832 -0.949217 0.007216 0.281944 0.348803 0.242000 0.034151 0.009370 0.131149 0.297650 0.431155 0.433065 0.039628 0.048682 0.138501 0.206679 0.004345 -0.315493 -0.218641 0.032701 -1.209924 -0.546191 -1.190386 -0.841413 0.020813 1.674927 1.397779 0.776748 0.506953 0.618424 -0.174942 0.112190 0.045334 0.023935 0.006016 0.041912 0.269172 0.394777 0.497856 0.498199 0.284446 0.054143 0.587713 1.389294 0.770417 0.689967 1.359806 -0.887810 -1.285947 -1.322319 -0.664468 -1.399100 -1.005222 -0.182813 2.939789 0.661133 0.914736 0.780561 -0.214675 0.180674 0.043814 0.012088 0.033033 0.047640 0.239109 0.382453 0.506103 0.443816 0.116898 -0.105520 -0.397704 0.554274 1.393948 -0.796428 -0.489051 -1.910838 -2.482744 -1.537699 -1.282054 -1.667956 -0.395318 1.629240 2.891322 0.342870 0.692072 0.399500 -0.477851 0.217546 0.058123 0.007013 0.012524 0.004552 0.250949 0.407887 0.461866 -0.130833 -1.200603 -0.822116 -0.592263 -0.021871 1.161817 -1.539952 -0.393761 -1.168300 0.018098 -0.577000 -1.382394 -1.991473 1.839300 2.251436 0.702902 0.354562 -0.706398 0.056396 -0.571839 0.061431 0.058876 0.047313 0.042034 0.041773 0.214565 0.329383 -0.054887 -0.372111 -1.068684 -1.518906 -2.207530 -1.183505 0.457632 -0.355119 -0.309916 0.392254 2.058004 -1.121010 -1.972338 0.058663 1.290729 -1.113056 0.046231 1.358337 0.249850 0.344233 -0.150214 0.094824 0.102403 0.049674 0.018214 0.046472 0.144589 0.466445 0.640383 0.423630 -1.634239 -2.014070 -0.020345 0.325975 0.251247 -0.871686 -0.196347 -1.305476 0.991735 -1.003428 -0.261249 0.769809 0.998036 -0.888954 -1.056261 -0.683627 0.089057 0.680496 0.623777 0.508899 0.862627 0.032171 0.027183 0.045642 0.116643 0.496508 1.022201 0.608032 -0.541594 -0.525586 -0.791395 -1.247890 0.053088 -0.649069 0.889524 -0.842977 -1.216084 -1.350823 -0.251350 0.405603 1.068090 -0.558941 0.267763 0.427737 0.935833 0.437937 2.044495 0.558527 1.139929 0.184353 0.057179 0.059471 0.108057 0.309322 0.779964 0.286226 -0.554682 -0.419123 -1.056869 -1.228404 -0.431738 -0.962802 0.337315 -0.643299 0.695541 -0.307288 -2.104787 -0.296240 1.802083 -0.196412 1.106299 0.736007 -1.127101 1.341609 1.842149 1.325716 1.563149 0.016241 0.058961 0.113162 -0.052004 0.024227 0.087691 0.074053 -0.512738 -0.274783 0.018193 -0.724995 -0.681952 -1.641701 -0.173217 0.614501 0.641487 0.138178 -0.579138 -0.059408 -0.644411 -1.060953 0.042041 0.370258 -0.043213 -1.078181 1.280992 0.515580 1.268169 0.090900 -0.100516 0.222497 -0.150796 -0.193389 -0.301812 0.091654 -0.131267 -0.503237 -0.397389 1.099618 1.897712 1.939681 0.034337 -0.542794 -0.803783 0.132497 -0.515745 -0.288176 -0.304170 -1.745486 0.006995 2.462819 -3.997149 1.591022 0.059927 -0.510077 -0.020205 -0.073991 -0.106313 0.387167 -0.225413 -0.373891 -0.558033 0.049515 0.046092 -0.098160 -0.605402 0.594370 -0.348882 -0.466193 0.471621 -0.975457 -0.892314 0.347056 0.747266 -0.495174 -1.521621 -2.056480 -0.964745 -1.238396 -1.022549 0.324593 -0.768248 -1.201289 -0.781895 -0.270745 -0.357492 0.169984 -0.120348 -0.247807 -0.476278 -0.478467 0.158201 0.253595 -1.468319 -0.835270 -0.569816 1.100804 1.185866 -0.288270 1.012221 1.589046 0.665008 -0.158857 -1.816256 -1.907743 -1.970737 -0.226896 -1.402092 -1.748400 -1.869814 -1.653842 -0.928539 -0.185229 -0.298278 0.254509 -0.068543 -0.232879 -0.813767 -1.458984 -0.930607 -0.725839 0.251405 0.981643 0.672306 -0.482228 -0.625276 0.267202 0.888517 0.653431 0.462837 0.198102 -0.998594 -1.918572 -1.734196 -2.125795 -0.272502 -1.339401 -1.748446 -1.785633 -0.148113 -0.518350 0.168664 0.372203 -0.003993 -0.034576 -0.171694 -0.362327 -1.239737 -0.514875 1.339759 0.134842 0.344325 1.543786 0.072982 -0.843378 0.555059 -0.833498 -0.459196 -0.596826 -2.318058 -0.133692 -1.287021 -0.818425 -0.115418 -0.782740 -2.790647 -0.106931 0.145563 -0.471144 0.199825 0.377709 0.095048 0.099684 0.490101 0.087222 -0.573178 0.382766 0.134228 -0.142747 0.714756 -0.259520 -1.815716 -0.146071 0.677528 -1.547150 -0.606658 0.531270 0.209953 1.038043 -2.242379 -3.904256 -1.663475 -1.636675 -1.418907 0.389152 0.219989 -0.348616 0.448663 0.293856 0.181848 0.403584 0.961144 -0.408924 0.128945 0.767575 0.565412 -0.857246 0.474580 0.591349 0.432361 2.029560 0.605966 0.325617 -2.668603 -2.566381 -0.091673 -1.413637 -3.404739 -1.325330 -1.843946 -3.586794 -1.169336 -0.524878 -0.794114 -0.243800 0.268964 0.021491 0.077737 0.741442 1.149768 1.404167 1.599796 1.868425 1.346748 1.480433 0.509129 1.249665 0.258161 1.142099 1.445729 0.938824 -0.278853 -0.314580 -1.701368 -1.943772 -0.317665 0.875170 0.211323 -1.575356 0.591903 -0.677117 -0.820807 -0.385846 0.041242 0.025467 0.018082 0.416875 0.568266 0.805477 0.635223 0.065965 0.678971 1.770664 1.151475 0.795477 0.307944 0.627114 1.277725 0.605112 0.513736 0.285397 -0.517859 0.167005 -0.998732 -1.522698 -1.158620 -0.602482 0.829074 -0.415926 0.456513 -0.306218 0.002032 0.025371 -0.183896 0.176033 0.043637 0.782864 1.032590 0.275683 0.893973 2.128096 1.572533 0.862324 2.493125 0.549966 0.445419 2.003954 1.597606 -0.764243 0.058403 1.960571 3.087412 0.591583 -0.216536 0.661858 -0.553374 -0.917171 -0.034223 0.008898 0.037672 0.007109 -0.168109 -0.251082 -0.911071 -0.479293 0.349601 -0.480088 -1.958592 -0.966807 -0.917037 -1.713285 -0.712142 -0.766376 -1.319305 -0.547713 0.292339 -0.034484 -0.450739 -0.781338 -1.919456 0.488390 -0.212596 1.149126 -1.175943 0.144378 -0.162080 0.061651 0.050088 0.058493 -0.097293 -0.198562 -0.286283 -0.727801 -0.121397 -0.115479 -1.285919 -1.128569 -0.380801 -1.199698 -0.985396 -0.866174 -0.285636 0.668301 -0.462605 -0.119314 0.083072 -0.027371 0.161012 0.692596 -0.871133 1.621369 0.405281 0.819776 -0.041999 0.170942 0.126035 0.166908 -0.078532 -0.029949 -0.322665 -0.982075 -0.687667 0.062085 0.662747 -0.222636 -1.442424 -1.146175 -0.459734 0.000037 -0.720044 -2.066845 -1.269655 -0.040917 1.836076 -0.318050 1.675947 0.881482 -2.029201 1.782842 2.008240 1.201871 -0.221437 0.256996 0.296124 0.257352 0.049215 0.043727 -0.391496 -1.341578 -1.457715 -0.880128 0.356396 -0.566130 -0.958595 -0.913566 -1.752059 -0.593336 -1.000001 -0.952409 -1.126597 -1.124648 1.166952 1.786615 0.199662 0.146826 3.552688 2.720005 0.629968 0.377873 -0.273720 0.248194 0.247716 0.217464 0.019018 0.011580 -0.168358 -0.257172 -0.057528 -0.053073 0.082395 -0.477140 -0.615654 0.317601 0.649818 0.029450 -1.182868 -1.440949 0.344958 -1.638673 -0.935612 -0.935314 1.782207 0.552775 2.057438 1.106621 -0.243760 -0.905076 0.009161 0.025108 0.022314 0.032698 0.002653 0.102137 0.226232 0.628717 1.215882 0.557619 -0.053827 -0.251940 -0.241099 -0.311699 -1.952669 -1.651408 0.100474 1.166566 1.708290 -1.980427 -2.650383 -2.655582 1.168692 0.821330 0.819141 0.487524 0.001884 -1.036772 0.018264 0.024162 0.025762 0.028058 0.044964 0.020361 0.105733 0.370773 0.592961 -0.270116 -0.687640 -1.344988 -2.375378 -0.824110 0.181955 1.034469 -0.293009 0.707242 0.939627 -0.855401 -1.361637 -0.585620 0.678760 0.900995 0.513354 0.067878 -0.563968 -0.049012 0.345593 0.019453 0.028357 0.027157 0.044800 0.037580 0.105681 0.327031 0.154716 -0.524598 -1.322383 -1.001953 -0.885300 -1.284792 -1.528419 -2.185316 -2.089933 -2.550437 -1.582595 -0.007003 0.131817 0.024008 0.133398 0.811127 0.566847 -0.703377 -0.772631 -0.016477 0.415266 0.005846 0.042743 0.048100 0.072462 0.003117 0.118328 0.314262 0.094900 -0.799365 -1.460727 -0.776070 -0.470852 -0.335466 -1.276081 -2.226002 -1.927901 -0.899880 0.704677 0.732689 1.808856 0.806451 2.183291 1.282682 -0.319816 -0.769389 -0.077885 0.180519 0.427744 0.339934 0.014771 0.014159 0.009422 -0.219397 -0.344886 -0.382898 -0.078369 -0.167786 0.699182 1.304853 1.509250 1.088387 1.525954 1.735000 1.484790 0.496410 -0.742584 -2.357135 -1.706220 -2.344007 -1.740010 -0.311230 -0.609497 -0.798555 -0.358102 0.084128 0.006873 0.043698 0.029781 0.003540 -0.133580 -0.311005 -0.408877 -0.463139 -0.437550 0.447481 0.978060 0.289493 0.132196 -0.682735 -0.221186 0.350913 -0.037134 -2.826745 -0.794434 1.230492 -1.647231 -2.990201 -1.566538 -0.316808 -0.600762 -0.174791 -0.317142 0.138301 0.008389 0.040898 0.016364 0.038800 -0.223302 -0.232161 -0.407782 -0.341130 -0.553325 0.233767 0.414086 -0.527084 -1.758583 -0.123583 -0.427488 1.100125 0.954705 0.006305 1.537337 0.002888 1.098688 -3.207374 0.151513 0.092306 0.126752 0.020090 -0.580776 0.036133 -0.102434 0.035623 0.009776 0.039623 -0.493146 -0.514272 -0.895321 -0.860157 -1.371506 -0.733630 -0.215066 -0.186472 -0.820667 0.014125 0.385962 -2.368719 -1.583594 0.095695 0.713783 -1.129291 -4.115850 1.506312 1.388989 0.484441 0.826866 1.189006 0.595777 -0.154735 -0.152624 0.032737 0.032851 0.005124 -0.533718 -0.668285 -0.953626 -1.660514 -1.565715 -0.556804 0.523440 -0.028205 -0.963872 0.401207 -0.776895 -2.553631 -2.050165 -0.270235 -0.114430 2.106199 -0.924960 1.478038 -0.180229 -0.060320 0.491016 -0.524721 1.068474 -0.270277 -0.212922 0.009958 0.046659 0.036698 -0.543703 -0.555284 -1.674719 -2.612313 -2.729840 -2.167769 -0.089688 -1.358786 -0.187413 1.206462 0.607014 0.048774 0.333798 0.372253 -0.183140 1.498151 -1.481027 -2.442571 -1.214435 -0.193596 -2.066871 -1.510711 0.934675 0.885596 0.230264 0.002872 0.037535 0.037892 -0.550821 -0.342026 -0.972242 -1.063168 -0.396516 -0.004638 -0.736356 -0.136772 0.306905 1.682570 -1.516345 -0.542966 -1.590992 1.196015 1.167943 0.776651 -0.266842 -1.861096 -1.218300 -0.907926 -0.229595 -1.074807 1.082074 0.507280 0.006854 -0.578160 -0.172728 -0.176798 -0.610248 -0.650420 -0.832710 -0.800374 0.494461 0.253726 -1.867168 -0.214481 0.318304 0.648863 -1.051159 1.227229 -2.222032 1.007729 0.757865 -1.275439 -0.403044 -2.609841 0.347765 0.110785 -1.578986 0.127208 -0.945925 -0.619613 -0.077582 -0.076118 -0.559879 -0.208985 -0.507370 -1.101947 -1.222117 -1.182176 -0.153950 -1.955360 -1.453974 -2.294916 -3.306373 -1.386862 -1.490986 -1.503574 -2.198401 -0.380263 -0.495901 -0.056820 0.319268 -0.510671 1.906261 0.141625 -0.622875 2.386717 -1.802045 1.429276 -0.125691 -0.111364 -0.526288 -0.274019 -0.415360 -1.091107 -0.742103 -0.516472 -1.352000 -2.435199 -4.298489 -1.172698 0.048058 -0.510734 -1.668301 -1.774827 -2.580702 -1.278033 0.530537 -0.771806 0.060211 -0.467272 -1.685619 -1.315594 -0.606668 -1.109565 -2.039306 0.962148 0.695894 -0.016611 -0.266052 -0.230049 -0.146755 -0.822398 -0.286646 0.020199 -2.266302 -2.355974 -2.177116 -0.269381 -1.454922 -1.932776 -1.524384 -3.251166 -1.472394 -3.068436 -0.973274 -1.046388 -0.936966 -0.380839 -0.902599 -2.023716 -2.635545 2.048461 0.617349 -0.746437 1.122399 0.122274 -0.354500 0.103027 -0.062633 -0.059165 1.121092 1.364225 -0.669721 1.179783 -0.524655 -0.291302 0.067116 0.228888 -1.057672 -1.612225 -1.984019 -2.237504 -3.268372 0.119535 0.200000 -1.902118 1.120579 -0.696501 -0.693988 2.013103 2.062409 0.771220 1.319800 0.246932 -0.031478 0.127236 -0.108293 -0.092691 0.705762 0.404843 -0.890728 -1.038866 0.242352 0.124817 0.900355 1.102943 1.031827 0.069651 -0.667912 -4.526815 -1.588933 -2.172438 -0.819561 1.587833 1.672250 -0.264747 -2.571887 0.249359 -1.566725 0.914892 -0.674195 0.194393 0.434608 0.099078 -0.069922 0.213614 0.741126 -0.719563 0.480133 0.619024 0.288208 1.069001 0.712356 -0.592437 -0.296051 1.028020 -0.640485 -4.090573 -3.181750 -2.494939 -1.458834 0.157427 0.934230 -0.271453 2.430547 3.113576 2.222190 0.446364 -1.285958 0.286635 0.292748 0.080538 -0.086147 0.298201 -0.044569 -0.789664 1.303092 2.343271 -0.050785 -1.081528 0.864839 1.386581 0.852233 1.232142 1.295596 -3.527723 -2.688866 -1.460752 -1.347303 0.647141 2.340372 2.910949 0.797216 1.817519 0.403236 -0.767019 -1.096412 0.316301 0.046022 0.130416 -0.182736 0.245128 -0.352705 -0.083047 1.806972 2.304848 -1.072784 0.378486 0.765593 1.239606 -0.179145 0.876357 1.227217 -0.598327 -2.674493 -1.289038 -0.308845 -0.503471 1.113628 1.442273 0.113615 2.460321 -1.335231 -2.265610 -1.267330 -0.157758 0.102436 0.040904 -0.089314 0.394256 -0.217988 0.417932 1.344540 0.979729 0.132986 -0.341669 -0.257014 -0.393841 0.821299 -0.288011 0.909831 -0.988493 -2.571820 -0.519534 0.671923 -0.333466 -0.098677 -3.040870 -5.943391 -0.831654 0.625391 -2.718781 -1.844592 -0.508629 0.022057 0.005205 0.110513 0.360172 -0.337271 1.837147 0.945639 1.031498 -0.745237 1.270591 0.843287 0.258945 -0.446025 -0.482604 1.428712 0.660931 -2.095927 0.571282 0.878519 0.542231 -0.263662 1.547999 -0.104375 -1.809005 -1.061335 -3.928365 -1.157988 -0.519249 0.025274 0.008029 0.087332 0.300656 -0.520096 -0.478980 -2.143642 -2.162054 -1.760319 0.021049 -0.589715 -0.883522 0.618849 1.945935 3.341801 1.265297 -0.384964 -2.028079 0.186586 0.291161 -1.791103 -2.031950 1.203615 -0.588124 -1.353311 -3.463912 -1.161910 0.030229 0.029972 0.005951 -0.018452 0.437206 1.383545 0.573621 -0.214034 -2.472465 -0.502575 -1.869383 -0.371747 -0.131401 -0.029625 0.013053 2.003774 1.398961 -1.249810 -1.431333 1.684623 -1.803683 -0.013362 -2.008171 0.403081 -3.584919 -2.302778 -1.447015 -0.880094 0.057878 0.068697 0.038923 -0.118617 -0.010641 0.940051 0.697854 -0.415836 0.203312 0.876006 -0.622424 -0.846599 -1.285924 -1.273113 -0.624680 -0.602102 0.765619 2.076707 -2.358427 2.176347 -2.678971 -2.194119 -2.495642 -1.935086 -0.956142 -1.036464 -1.895298 -0.366533 0.105275 0.093151 0.125507 -0.151817 -0.053542 0.693205 1.134091 1.959460 1.464303 2.064468 0.670157 0.409336 0.557269 0.139450 -0.393746 0.312865 0.313808 -0.523925 -0.705972 -1.425360 1.531021 -1.534760 0.418134 -1.378802 -2.574415 0.013666 -0.871952 0.068327 0.089948 0.091254 0.122228 -0.073738 -0.069388 -0.205271 -0.718965 -0.927805 0.620201 0.509636 0.178185 -0.713798 0.673562 1.060893 0.226034 1.487476 0.799469 -0.331880 0.429270 1.222525 -0.705986 -1.478066 -1.661484 -2.350150 -1.115419 -0.695902 -0.129081 0.087505 0.129137 0.118958 0.125305 0.014189 0.195159 0.451920 0.025805 -0.736858 -0.861456 -0.087748 0.355857 1.096564 -0.190580 -0.853597 -1.187030 0.652362 -1.715586 0.074518 -0.458090 0.556165 2.268829 -2.464468 -0.392734 -0.671218 0.376691 -0.518323 -0.430724 0.047110 0.031596 0.000701 0.003898 0.048179 0.102059 0.146382 -0.334248 -1.086448 -0.996094 -0.864612 -0.688423 0.127043 0.199165 -1.893325 -2.391220 -3.102802 -3.551975 -0.887480 0.196046 -0.999595 -2.205877 -2.114681 0.211049 2.317732 0.037936 -0.193198 -0.489227 0.042411 0.030009 0.046457 0.033528 0.013733 0.046332 0.128172 -0.009553 -0.310060 -0.073574 0.159040 0.634030 0.274985 0.650933 -0.088400 -0.894145 -2.925903 -3.867920 -0.846871 -0.612870 -0.460602 -2.003070 0.967644 2.590357 0.101606 -0.282103 0.082008 -0.062015 0.345576 0.012397 0.042795 0.022883 -0.586916 0.047199 0.129833 0.321105 0.373434 0.079910 -0.320995 -0.015126 -0.426524 0.171651 0.796036 1.266634 0.510647 0.260723 -0.433808 -0.057770 -1.864824 1.646089 1.201677 -0.015963 0.197812 -0.115447 -0.185584 0.027280 0.437895 0.039306 0.020000 0.040455 -0.713642 0.031714 0.118647 0.317612 0.242413 -0.201505 -0.239917 -0.380190 -0.064784 0.045659 -0.596464 0.096267 0.356879 0.710262 1.428359 -2.056829 -2.317103 -1.173708 -0.062904 0.715508 0.184060 -0.147313 -0.095192 0.180339 0.505027 0.343181 0.013910 0.020764 0.040776 0.095638 0.189894 0.063547 -0.067590 -0.092841 0.403061 -0.057282 -0.732622 0.009332 1.047707 1.519201 1.211654 1.827509 0.436657 -1.468617 -1.811646 -0.553818 0.117652 0.769267 2.385263 1.957917 0.430403 0.138798 0.020748 0.004744 0.029225 0.004992 0.106111 0.162572 0.346422 0.220069 0.116880 0.276202 0.540166 -0.730226 -1.453784 0.213673 0.307714 1.449464 0.999826 0.036349 0.411261 0.220705 -0.270725 0.901238 0.019888 -0.055991 1.484624 2.554931 0.623364 -0.388228 0.024039 0.004800 0.030329 0.006166 0.117522 0.141845 0.347259 0.206818 -0.046689 -0.048985 0.170534 -0.958696 -2.073609 -0.602277 -1.402259 1.003490 0.631309 -0.159571 -0.439724 -1.541373 0.599341 1.408153 -1.749965 0.751819 0.377623 2.423943 0.928414 -0.357093 0.077465 0.011746 0.001596 0.043408 -0.003910 0.164056 0.186761 0.137282 -0.425067 0.132113 0.620931 0.633764 -1.293544 -0.367592 -1.813685 0.650119 -1.584055 0.068598 1.338686 -0.785779 0.180424 -2.242327 0.779240 -0.772008 0.882167 0.877166 0.803887 0.102751 0.105744 0.024728 0.007581 0.016071 -0.038703 0.028477 0.063700 0.325214 0.159747 0.630881 0.493773 0.975266 -0.308198 0.419963 -1.799164 0.145329 -1.930339 1.881739 0.132453 0.019703 0.672971 -3.636515 -1.783046 0.077864 -0.029962 -1.417633 -0.006456 0.129997 0.086131 0.029052 0.046601 0.048870 -0.048664 -0.138405 -0.121988 0.199211 -0.081923 -1.294954 -1.430949 -0.773104 -2.139371 -1.819935 -0.619562 0.581084 -1.028780 0.312416 0.986169 -0.415910 0.204818 -0.674995 2.527217 -0.375243 -2.007822 -2.771306 -1.019694 -1.421432 -0.905695 0.003763 0.032162 0.002635 -0.009426 -0.119797 0.100954 0.317828 -0.375008 -0.786600 0.174167 -0.819333 -3.439600 -2.919965 -2.629008 -0.822566 -1.710107 0.614009 0.894602 0.305472 0.024599 -0.140629 -0.471479 0.629800 1.574204 -0.399914 -0.857853 -0.717892 -0.706482 0.078789 0.348974 0.326471 -0.054687 -0.095620 0.176991 0.420779 0.117336 0.690959 0.310610 0.410343 -0.921661 -1.099702 -0.238097 -0.558820 -0.662655 -0.014383 1.028537 0.128743 -0.877527 -1.854048 -2.332373 1.479282 -0.295389 -2.264082 -0.919619 -0.711427 0.389993 0.079937 0.218379 0.246993 -0.029635 -0.409790 -0.313085 0.187189 -0.073265 1.029511 -0.078991 2.308311 -0.411561 1.410164 0.483865 0.825010 -0.834955 0.390288 0.686422 -0.517077 1.407685 0.355009 -0.032484 -0.320332 -0.950062 0.354752 -1.364365 -0.406178 0.396124 -0.058540 0.144708 0.251686 -0.166719 -0.188918 -0.058428 0.377446 0.328726 0.024442 -0.824183 -0.355861 0.124639 0.756247 1.253683 0.799559 -0.805602 -0.505091 -0.116776 0.295330 -2.153749 -1.983031 1.048335 -0.730393 1.772321 -2.486493 -0.112359 0.048791 0.133136 0.047424 0.196786 0.019355 0.031239 -0.082696 -0.048692 0.021102 0.219127 0.310999 0.377619 -0.049690 1.516380 1.438559 0.368835 1.765082 0.988266 0.965272 -0.773495 -0.289128 0.725561 -0.404964 -1.076912 0.112641 -4.332220 -0.780051 -2.941386 -0.286319 -0.894275 0.246120 -0.071017 -0.546192 0.114269 0.455150 1.531747 1.879053 1.263958 2.182189 1.811388 1.134807 1.040689 1.142854 0.738459 0.225113 0.983679 1.403066 -0.196014 -0.709520 0.458233 -0.224199 -0.761035 -2.602071 -2.435825 2.555498 -2.887395 -1.865693 -0.948449 -0.190817 -0.706994 -0.514764 0.056831 0.362778 1.201487 1.092856 0.730403 2.567681 1.466752 0.178584 0.617482 1.577247 1.162820 0.957836 0.692353 0.576888 -0.209248 0.004919 -1.885713 -1.251369 0.501432 -0.339929 0.691061 -0.371654 -1.825043 -0.529288 -0.956302 -0.785289 -0.767470 -0.657526 0.120472 0.139645 -0.479746 -0.710778 0.631523 1.839624 0.673809 -0.892234 0.727625 0.446810 0.027421 1.297678 1.593400 0.559312 -0.387221 -0.715647 -0.593316 0.215065 -0.155807 0.152755 -0.325762 1.254155 -0.220460 -0.495998 -0.755608 -0.774108 -0.781019 -0.696733 -0.050975 -0.036235 -1.047426 -1.331329 -0.397177 -0.730014 0.139471 -0.670060 -0.670793 -1.377537 -0.693488 1.650857 0.440010 1.801828 1.651321 -0.751481 0.346962 0.003332 1.400296 -2.496685 0.064252 -1.732204 1.278101 -0.261333 0.603395 -0.774154 -0.774862 -0.513820 0.013989 -0.636483 -1.882180 -1.372948 -2.015455 -2.361616 -1.340717 0.115561 1.161107 0.178517 -1.997607 -0.928000 0.456155 -0.881241 -0.083312 -0.145457 0.281091 1.327442 2.329441 2.786700 3.666477 1.376784 3.136513 1.551047 2.293387 -0.529384 -0.523885 0.009606 0.190126 -0.558505 -1.928660 -1.485859 -2.545417 -2.056312 -0.680635 -1.450833 -1.128846 0.284644 -1.374636 -0.752590 -0.453786 -3.275193 -1.915574 -0.542353 0.737129 0.478314 1.134798 0.451291 0.908485 0.995341 1.661275 0.155059 2.116435 -0.059297 0.032069 0.042117 0.301988 -0.654049 -1.280987 -0.779975 -1.609679 -0.546545 -0.795550 -1.642315 -0.860868 -0.281754 -1.811053 -0.171958 0.411334 -1.531797 -2.539397 -1.521538 -0.769182 -0.879804 1.683646 2.224292 0.468555 0.471388 1.473878 1.163864 0.599933 0.083149 0.024564 0.012855 0.201353 -0.635031 -0.954653 -0.755068 0.145614 0.219329 -0.195316 -1.834717 -0.953599 -1.194965 -0.289173 0.596670 2.159897 -0.837729 -0.667294 -1.881073 0.713832 1.316107 -0.215493 -2.425884 -3.073521 -2.245659 2.332672 -0.702648 -0.127494 0.012719 0.033515 0.029863 0.109544 0.161025 0.532502 0.189533 0.801545 1.329834 1.083696 0.238870 -0.297561 -1.889127 -1.078667 0.659120 0.555095 0.182009 -1.006238 -1.669317 -2.694019 -3.194255 0.069621 0.081279 0.112691 -2.112918 0.386667 0.488905 -0.630936 -0.124285 -0.146526 -0.129960 0.128798 0.140102 0.046301 0.701467 0.449267 -0.708827 -0.768953 0.201823 -1.393628 -2.093292 0.008949 0.498267 0.477558 1.022481 0.814197 -1.617196 -3.526308 -2.660802 -1.060710 -3.538770 -0.168297 -2.726967 1.419912 -1.557264 -0.855608 -0.295157 -0.262913 -0.301093 0.187973 -0.215290 -0.373392 0.394920 0.350437 -0.364154 -1.417595 -1.488945 -0.094849 -0.821177 -0.172566 1.016071 0.285933 -0.229700 0.867863 -1.363679 -0.476112 -1.705265 -1.612887 -0.794493 3.759197 -1.063291 -4.245516 -2.015703 -0.851613 -0.541642 -0.563677 -0.549797 0.119900 -0.175261 0.158680 0.566404 0.495812 -0.540902 0.277455 1.263355 0.409400 0.251905 1.905520 0.838284 1.698477 1.119318 1.388076 -0.997497 -0.551740 -4.671735 -2.930011 0.914856 -7.731160 -4.668081 -0.507530 -0.533244 -0.512957 -0.541728 -0.534272 -0.416607 0.003413 -0.133500 -0.378478 -0.864034 -0.225372 -0.173988 1.800975 1.749357 0.459674 -1.175488 -0.059303 -1.613866 -0.811854 2.114538 1.248088 -1.826607 -5.697389 -1.301359 -2.239091 -0.985499 -5.952424 0.230955 1.352753 0.819317 0.042250 0.018698 0.018500 0.049252 0.022393 -0.113995 -0.462058 -1.149477 -1.430940 -1.259354 -0.338563 0.175449 2.013961 1.084979 -0.005951 0.948429 -0.215939 2.826642 1.248989 -2.149175 -4.853668 4.553571 -3.176421 -1.249138 -0.795166 0.163893 0.555401 1.011888 0.036294 0.046392 0.024963 0.049288 0.018394 0.045172 -0.205497 -0.777414 -0.910083 -1.026790 -0.809382 -0.404322 0.572199 0.181287 2.166567 5.140731 3.335223 2.752185 -0.471637 -0.927889 -1.269576 -1.049358 -3.731670 -0.786583 -0.037592 0.948461 -0.297210 0.146176 -0.899233 0.016613 0.027379 0.032304 -0.638031 0.003427 -0.199449 -0.801985 -1.163570 -0.830300 1.288847 1.450891 1.913685 -0.527251 0.906470 2.718811 3.331155 3.124165 2.135760 1.791175 -2.157749 1.931981 -0.604854 -0.671441 -0.246858 0.213258 0.284765 -0.026156 -1.111109 0.002579 0.033516 0.043959 -0.816331 0.007627 -0.174096 -0.817501 -1.079799 -0.407114 0.576666 0.638678 -0.199818 -3.066114 -1.424408 1.399152 1.735725 1.533995 0.643795 -4.915448 -10.707301 -2.873705 -3.965661 -2.335618 -0.703188 0.301946 0.223799 -0.590570 -1.234326 -0.882051 0.045538 0.013802 -0.017229 -0.140691 -0.249680 -0.140991 0.179224 -0.166498 -0.030401 -0.081333 -0.657396 -2.857690 -3.207371 -1.795166 -0.444668 0.869805 0.654037 2.269287 3.380515 -0.013128 0.180310 0.116311 -0.970596 -0.503233 0.394206 0.107620 0.000273 0.005029 0.026764 0.046655 -0.122440 -0.235725 -0.332990 -0.310894 -0.095265 0.425994 0.527104 0.840278 0.137515 -1.425922 -1.583250 -3.423554 -2.054986 -0.563934 0.753125 0.073182 -3.518281 -0.164194 1.350204 1.161029 -0.146536 0.285543 0.356955 0.162780 0.038249 0.037716 0.006565 0.001933 -0.216149 -0.193913 -0.316663 -0.285414 -0.128580 0.615575 0.954741 2.049053 1.031905 -0.026896 0.941431 -3.911523 -5.630434 -0.976035 2.319759 1.076811 -0.740888 0.390771 2.227998 -0.318933 -1.178593 -0.538607 -0.063394 0.142559 -0.099655 0.030159 0.005665 0.016299 -0.487672 -0.454420 -0.702779 -0.482891 -0.214655 0.224105 0.485055 1.484227 2.139343 -0.502097 0.364283 -2.014343 -1.559113 -1.005347 -0.023264 0.713320 0.677950 3.277370 1.518018 -1.926589 -2.416946 -1.546800 0.007867 -0.151861 -0.127036 0.041900 0.039613 0.015993 -0.498727 -0.594685 -0.579553 -0.531433 -0.605944 -0.206965 -0.592943 -2.422154 -3.122377 -1.615515 -2.082567 0.761243 0.482973 -2.022763 -1.889961 -0.689542 1.257271 -0.240458 0.800338 -0.298779 -2.590681 -2.529509 0.018573 -0.234778 -0.160038 0.028095 0.025217 0.025016 -0.491749 -0.141330 0.299162 0.347198 -1.850726 -0.997110 0.656619 -0.937637 0.164047 -1.127027 -2.405083 -1.881979 0.041098 -1.425568 0.193855 1.351982 -0.284283 0.555198 -3.070857 0.678835 1.561517 0.134464 0.243343 1.672823 1.461977 0.002852 0.004676 0.049405 -0.467255 0.333222 0.881642 0.963655 0.596493 -0.570756 -0.392723 -2.994882 -0.609415 -1.167870 -2.300665 0.054884 -2.014462 -1.573591 -1.651762 0.227674 -1.476413 -0.508701 0.011678 1.134261 -1.813866 -0.185571 1.126695 1.632294 2.125826 -0.021011 -0.083145 -0.082440 -0.539484 0.322395 0.874588 0.862867 -0.500190 -1.043925 -0.313101 -1.358481 -1.259554 1.001829 -1.011631 -0.829634 0.842145 -0.882192 -1.290427 0.711226 1.487425 -1.520283 -0.435076 0.911341 2.106352 -0.522356 -1.812835 1.260536 1.945037 0.015932 -0.163566 -0.176327 -0.553398 0.075416 0.411417 -0.324250 -1.070214 -2.214265 -2.925628 -3.163292 -1.258272 -2.710412 -1.067769 -1.162430 -0.437005 -1.346869 -0.911217 0.606877 0.233437 -1.159799 1.274527 0.930505 -2.274589 -1.273619 -1.517465 -0.228843 1.714152 -0.120921 -0.192352 -0.283244 -0.421043 -0.387247 -0.119553 -0.547387 -0.780338 -1.036401 -2.634528 -2.019595 -1.734520 -0.558291 -0.407882 -2.241147 -1.137674 -1.989014 -1.368543 -0.187858 1.538090 0.523269 -0.037196 -1.299499 -1.850616 -1.506328 -1.108574 0.189949 0.304491 -0.255721 -0.415843 -0.297366 -0.236669 -0.744457 -0.074048 0.075349 -0.001796 -0.839830 -1.374456 -2.624531 -1.999896 -0.029202 -0.662321 -2.589911 -1.649244 -2.545812 -0.565714 -2.089595 -0.296171 0.858845 -0.140483 -3.619349 -0.568317 -1.308394 -1.575406 0.046675 -0.145006 -0.482122 -0.430798 -0.068685 -0.283980 -0.879160 -0.764620 0.094103 1.120271 -0.497424 -3.063495 -1.259791 -1.102502 0.822601 0.305063 -0.226946 -1.692672 -2.767073 -1.329229 